{"learner":{"attributes":{"scikit_learn":"{\"n_estimators\": 500, \"objective\": \"reg:squarederror\", \"max_depth\": 7, \"learning_rate\": 0.08, \"verbosity\": null, \"booster\": null, \"tree_method\": null, \"gamma\": 0.3, \"min_child_weight\": null, \"max_delta_step\": null, \"subsample\": 0.75, \"colsample_bytree\": 0.5, \"colsample_bylevel\": null, \"colsample_bynode\": null, \"reg_alpha\": null, \"reg_lambda\": null, \"scale_pos_weight\": null, \"base_score\": null, \"missing\": NaN, \"num_parallel_tree\": null, \"kwargs\": {\"eta\": 0.04}, \"random_state\": null, \"n_jobs\": null, \"monotone_constraints\": null, \"interaction_constraints\": null, \"importance_type\": \"gain\", \"gpu_id\": null, \"validate_parameters\": null, \"_estimator_type\": \"regressor\"}"},"feature_names":[],"feature_types":[],"gradient_booster":{"model":{"gbtree_model_param":{"num_trees":"500","size_leaf_vector":"0"},"tree_info":[0,0,0,0,0,0,0,0,0,0,0,0,0,0,0,0,0,0,0,0,0,0,0,0,0,0,0,0,0,0,0,0,0,0,0,0,0,0,0,0,0,0,0,0,0,0,0,0,0,0,0,0,0,0,0,0,0,0,0,0,0,0,0,0,0,0,0,0,0,0,0,0,0,0,0,0,0,0,0,0,0,0,0,0,0,0,0,0,0,0,0,0,0,0,0,0,0,0,0,0,0,0,0,0,0,0,0,0,0,0,0,0,0,0,0,0,0,0,0,0,0,0,0,0,0,0,0,0,0,0,0,0,0,0,0,0,0,0,0,0,0,0,0,0,0,0,0,0,0,0,0,0,0,0,0,0,0,0,0,0,0,0,0,0,0,0,0,0,0,0,0,0,0,0,0,0,0,0,0,0,0,0,0,0,0,0,0,0,0,0,0,0,0,0,0,0,0,0,0,0,0,0,0,0,0,0,0,0,0,0,0,0,0,0,0,0,0,0,0,0,0,0,0,0,0,0,0,0,0,0,0,0,0,0,0,0,0,0,0,0,0,0,0,0,0,0,0,0,0,0,0,0,0,0,0,0,0,0,0,0,0,0,0,0,0,0,0,0,0,0,0,0,0,0,0,0,0,0,0,0,0,0,0,0,0,0,0,0,0,0,0,0,0,0,0,0,0,0,0,0,0,0,0,0,0,0,0,0,0,0,0,0,0,0,0,0,0,0,0,0,0,0,0,0,0,0,0,0,0,0,0,0,0,0,0,0,0,0,0,0,0,0,0,0,0,0,0,0,0,0,0,0,0,0,0,0,0,0,0,0,0,0,0,0,0,0,0,0,0,0,0,0,0,0,0,0,0,0,0,0,0,0,0,0,0,0,0,0,0,0,0,0,0,0,0,0,0,0,0,0,0,0,0,0,0,0,0,0,0,0,0,0,0,0,0,0,0,0,0,0,0,0,0,0,0,0,0,0,0,0,0,0,0,0,0,0,0,0,0,0,0,0,0,0,0,0,0,0,0,0,0,0,0,0,0,0,0,0,0,0,0,0,0,0,0,0,0,0,0,0,0,0,0,0,0,0,0,0,0,0,0,0,0,0,0,0,0,0,0,0,0,0,0,0,0,0,0,0,0,0],"trees":[{"base_weights":[2.3276096E1,2.0709768E1,3.755946E1,2.1473E1,9.875E0,3.8008335E1,1.07E1,2.0244642E1,2.7075758E1,4.2333336E0,1.03785715E1,3.0416666E1,4.32E1,2.0963829E1,1.5900001E1],"categories":[],"categories_nodes":[],"categories_segments":[],"categories_sizes":[],"default_left":[true,true,true,true,true,true,false,true,false,false,false,false,false,false,false],"id":0,"left_children":[1,3,5,7,9,11,-1,13,-1,-1,-1,-1,-1,-1,-1],"loss_changes":[8.42275E3,1.5658828E3,3.9402344E1,8.282969E2,1.5197754E0,1.0488281E2,0E0,1.9160938E2,0E0,0E0,0E0,0E0,0E0,0E0,0E0],"parents":[2147483647,0,0,1,1,2,2,3,3,4,4,5,5,7,7],"right_children":[2,4,6,8,10,12,-1,14,-1,-1,-1,-1,-1,-1,-1],"split_conditions":[9.4166017E-1,1.0389792E0,8.614139E-2,3.407178E-1,9.0736043E-1,1.5815525E0,8.5599995E-1,1.3115237E0,2.1660607E0,3.3866668E-1,8.302857E-1,2.4333332E0,3.456E0,1.6771063E0,1.2720001E0],"split_indices":[5,0,0,5,6,5,0,10,0,0,0,0,0,0,0],"split_type":[0,0,0,0,0,0,0,0,0,0,0,0,0,0,0],"sum_hessian":[2.5E2,2.14E2,3.6E1,1.99E2,1.5E1,3.5E1,1E0,1.67E2,3.2E1,2E0,1.3E1,1.7E1,1.8E1,1.4E2,2.7E1],"tree_param":{"num_deleted":"0","num_feature":"13","num_nodes":"15","size_leaf_vector":"0"}},{"base_weights":[2.1296278E1,1.9076109E1,3.5755665E1,2.2897839E1,1.5044308E1,3.6246365E1,1.0271999E1,2.1975588E1,3.522092E1,1.6345568E1,9.155432E0,1.0261447E1,3.8160526E1],"categories":[],"categories_nodes":[],"categories_segments":[],"categories_sizes":[],"default_left":[true,true,true,true,true,false,false,false,true,false,false,false,false],"id":1,"left_children":[1,3,5,7,9,-1,-1,-1,11,-1,-1,-1,-1],"loss_changes":[7.3113906E3,3.0145625E3,2.7832031E1,4.7614453E2,6.856113E2,0E0,0E0,0E0,4.8644043E1,0E0,0E0,0E0,0E0],"parents":[2147483647,0,0,1,1,2,2,3,3,4,4,8,8],"right_children":[2,4,6,8,10,-1,-1,-1,12,-1,-1,-1,-1],"split_conditions":[9.9104315E-1,8.0692116E-5,3.4142876E0,3.696047E-1,4.9178478E-1,2.899709E0,8.2175994E-1,1.758047E0,7.617994E-1,1.3076454E0,7.324345E-1,8.2091576E-1,3.0528421E0],"split_indices":[5,12,5,0,0,0,0,0,6,0,0,0,0],"split_type":[0,0,0,0,0,0,0,0,0,0,0,0,0],"sum_hessian":[2.48E2,2.17E2,3.1E1,1.09E2,1.08E2,3E1,1E0,1.04E2,5E0,8.7E1,2.1E1,1E0,4E0],"tree_param":{"num_deleted":"0","num_feature":"13","num_nodes":"13","size_leaf_vector":"0"}},{"base_weights":[1.960679E1,1.6887367E1,2.798585E1,1.8874128E1,1.467868E1,2.30556E1,3.1171635E1,2.2602932E1,1.4075348E1,2.3621689E1,4.1686397E0,7.8248534E0,2.98467E1,8.809645E0,1.5011027E1,9.448553E0,2.8915198E0,3.519266E0,1.0143496E1],"categories":[],"categories_nodes":[],"categories_segments":[],"categories_sizes":[],"default_left":[true,true,true,false,true,true,false,true,true,false,false,false,false,true,false,true,false,false,false],"id":2,"left_children":[1,3,5,-1,7,9,-1,11,13,-1,-1,-1,-1,15,-1,17,-1,-1,-1],"loss_changes":[5.155586E3,5.523047E2,2.0801562E2,0E0,1.3126758E2,1.9020508E2,0E0,3.0169897E2,3.1118945E2,0E0,0E0,0E0,0E0,3.3177612E1,0E0,2.1989502E1,0E0,0E0,0E0],"parents":[2147483647,0,0,1,1,2,2,4,4,5,5,7,7,8,8,13,13,15,15],"right_children":[2,4,6,-1,8,10,-1,12,14,-1,-1,-1,-1,16,-1,18,-1,-1,-1],"split_conditions":[5.2573013E-1,3.112533E-1,9.4166017E-1,1.5099303E0,-1.2821363E0,9.2427176E-1,2.4937308E0,-1.8919501E0,-1.1669748E0,1.8897351E0,3.3349118E-1,6.2598825E-1,2.387736E0,-1.1845353E0,1.2008822E0,9.316206E-1,2.3132157E-1,2.8154126E-1,8.114796E-1],"split_indices":[5,6,5,0,7,5,0,5,7,0,0,0,0,7,0,6,0,0,0],"split_type":[0,0,0,0,0,0,0,0,0,0,0,0,0,0,0,0,0,0,0],"sum_hessian":[2.46E2,1.88E2,5.8E1,9.5E1,9.3E1,2.6E1,3.2E1,4E0,8.9E1,2.5E1,1E0,2E0,2E0,1.5E1,7.4E1,1.3E1,2E0,2E0,1.1E1],"tree_param":{"num_deleted":"0","num_feature":"13","num_nodes":"19","size_leaf_vector":"0"}},{"base_weights":[1.8070429E1,1.555088E1,2.7625578E1,1.6546314E1,9.815184E0,2.8264278E1,8.410766E0,1.712421E1,1.2485819E1,6.439419E0,1.189549E1,2.4213293E1,3.398876E1,1.5494754E1,1.8668325E1,3.6211915E0,7.6027455E0,3.92027E0,1.0629001E0],"categories":[],"categories_nodes":[],"categories_segments":[],"categories_sizes":[],"default_left":[true,true,true,true,true,true,false,true,false,true,false,false,false,false,false,true,false,false,false],"id":3,"left_children":[1,3,5,7,9,11,-1,13,-1,15,-1,-1,-1,-1,-1,17,-1,-1,-1],"loss_changes":[5.3723906E3,9.3952734E2,3.636289E2,1.6867969E2,1.4110156E2,2.669414E2,0E0,6.2984375E1,0E0,1.8368225E1,0E0,0E0,0E0,0E0,0E0,4.239273E-1,0E0,0E0,0E0],"parents":[2147483647,0,0,1,1,2,2,3,3,4,4,5,5,7,7,9,9,15,15],"right_children":[2,4,6,8,10,12,-1,14,-1,16,-1,-1,-1,-1,-1,18,-1,-1,-1],"split_conditions":[5.083417E-1,1.2172964E0,1.1241891E0,1.3115237E0,1.4567149E0,1.5843346E0,6.728612E-1,-2.1710142E-1,9.988655E-1,-3.8333434E-1,9.516392E-1,1.9370635E0,2.719101E0,1.2395803E0,1.493466E0,1.2106125E0,6.082196E-1,3.1362158E-1,8.5032E-2],"split_indices":[5,4,4,10,4,5,0,5,0,5,0,0,0,0,0,6,0,0,0],"split_type":[0,0,0,0,0,0,0,0,0,0,0,0,0,0,0,0,0,0,0],"sum_hessian":[2.4E2,1.92E2,4.8E1,1.62E2,3E1,4.6E1,2E0,1.39E2,2.3E1,1.3E1,1.7E1,3E1,1.6E1,7.3E1,6.6E1,5E0,8E0,4E0,1E0],"tree_param":{"num_deleted":"0","num_feature":"13","num_nodes":"19","size_leaf_vector":"0"}},{"base_weights":[1.6358133E1,1.6996693E1,6.0723324E0,2.0408333E1,1.5584621E1,2.1906513E1,1.3920988E1,1.633205E1,1.0984918E1,1.7925009E1,1.4218742E1,1.663036E1,2.9394426E1,1.4945357E1,6.374578E0,1.2230106E1,1.7881844E1,3.2725723E1,6.3689685E0,7.522092E0,1.5223616E1],"categories":[],"categories_nodes":[],"categories_segments":[],"categories_sizes":[],"default_left":[true,true,false,true,true,false,false,true,false,true,true,true,true,true,false,false,false,false,false,false,false],"id":4,"left_children":[1,3,-1,5,7,-1,-1,9,-1,11,13,15,17,19,-1,-1,-1,-1,-1,-1,-1],"loss_changes":[1.4074531E3,7.225156E2,0E0,2.7819336E2,3.6035156E2,0E0,0E0,1.9286328E2,0E0,5.802793E2,2.5811035E2,1.5026172E2,2.5179883E2,1.1591797E0,0E0,0E0,0E0,0E0,0E0,0E0,0E0],"parents":[2147483647,0,0,1,1,3,3,4,4,7,7,9,9,10,10,11,11,12,12,13,13],"right_children":[2,4,-1,6,8,-1,-1,10,-1,12,14,16,18,20,-1,-1,-1,-1,-1,-1,-1],"split_conditions":[1.0552446E0,-5.886581E-1,4.857866E-1,3.4351167E-1,1.3115237E0,1.752521E0,1.113679E0,3.060953E-1,8.787934E-1,3.696047E-1,4.8526666E-1,-7.26788E-1,-9.498309E-2,3.3003235E-1,5.0996625E-1,9.784085E-1,1.4305475E0,2.6180577E0,5.095175E-1,6.0176736E-1,1.2178892E0],"split_indices":[0,9,0,10,10,0,0,11,0,0,0,11,11,11,0,0,0,0,0,0,0],"split_type":[0,0,0,0,0,0,0,0,0,0,0,0,0,0,0,0,0,0,0,0,0],"sum_hessian":[2.29E2,2.15E2,1.4E1,5.9E1,1.56E2,4.6E1,1.3E1,1.32E2,2.4E1,7.1E1,6.1E1,6.6E1,5E0,5.5E1,6E0,1.7E1,4.9E1,4E0,1E0,3E0,5.2E1],"tree_param":{"num_deleted":"0","num_feature":"13","num_nodes":"21","size_leaf_vector":"0"}},{"base_weights":[1.5896586E1,1.4080905E1,2.6216318E1,1.595008E1,9.895875E0,2.6552416E1,7.56255E0,1.5212208E1,2.3873627E1,1.104785E1,6.751539E0,1.7117764E1,1.3746809E1,2.860947E1,1.3415888E1,7.5805593E0,4.1289945E0,2.1184947E0,7.8377566E0],"categories":[],"categories_nodes":[],"categories_segments":[],"categories_sizes":[],"default_left":[true,true,true,true,true,false,false,true,true,false,true,false,false,false,false,true,false,false,false],"id":5,"left_children":[1,3,5,7,9,-1,-1,11,13,-1,15,-1,-1,-1,-1,17,-1,-1,-1],"loss_changes":[4.034121E3,1.4223203E3,1.2359375E1,4.4365625E2,1.6085254E2,0E0,0E0,1.249043E2,1.1144043E2,0E0,1.2182739E1,0E0,0E0,0E0,0E0,3.0633545E0,0E0,0E0,0E0],"parents":[2147483647,0,0,1,1,2,2,3,3,4,4,7,7,8,8,10,10,15,15],"right_children":[2,4,6,8,10,-1,-1,12,14,-1,16,-1,-1,-1,-1,18,-1,-1,-1],"split_conditions":[9.924342E-1,3.9660144E-1,1.332572E0,1.4627924E0,1.4627924E0,2.1241932E0,6.05004E-1,-6.0995126E-1,1.4256792E0,8.838279E-1,2.0327942E0,1.369421E0,1.0997447E0,2.2887576E0,1.073271E0,-1.2012837E0,3.3031955E-1,1.6947958E-1,6.2702054E-1],"split_indices":[5,12,4,9,9,0,0,12,4,0,12,0,0,0,0,5,0,0,0],"split_type":[0,0,0,0,0,0,0,0,0,0,0,0,0,0,0,0,0,0,0],"sum_hessian":[2.34E2,2.01E2,3.3E1,1.37E2,6.4E1,3.2E1,1E0,1.28E2,9E0,4.5E1,1.9E1,5.1E1,7.7E1,5E0,4E0,1.3E1,6E0,1E0,1.2E1],"tree_param":{"num_deleted":"0","num_feature":"13","num_nodes":"19","size_leaf_vector":"0"}},{"base_weights":[1.41747E1,1.2599868E1,2.4842875E1,1.5472437E1,1.0274331E1,2.7769083E1,1.8655117E1,1.3875256E1,1.7748981E1,7.049613E0,1.1414229E1,8.542122E0,5.647839E0,2.3657472E0,5.868809E0],"categories":[],"categories_nodes":[],"categories_segments":[],"categories_sizes":[],"default_left":[true,true,true,true,true,false,false,false,false,true,false,false,true,false,false],"id":6,"left_children":[1,3,5,7,9,-1,-1,-1,-1,11,-1,-1,13,-1,-1],"loss_changes":[3.8703242E3,1.3040078E3,4.326953E1,1.02791016E2,3.7533984E2,0E0,0E0,0E0,0E0,2.4981201E1,0E0,0E0,1.3460083E0,0E0,0E0],"parents":[2147483647,0,0,1,1,2,2,3,3,4,4,9,9,12,12],"right_children":[2,4,6,8,10,-1,-1,-1,-1,12,-1,-1,14,-1,-1],"split_conditions":[9.9730295E-1,-2.2287145E-1,-9.418376E-1,3.3932668E-1,-1.0700605E0,2.2215266E0,1.4924093E0,1.1100204E0,1.4199185E0,1.134264E0,9.1313833E-1,6.8336976E-1,9.0736043E-1,1.8925977E-1,4.695047E-1],"split_indices":[5,12,12,5,7,0,0,0,0,8,0,0,6,0,0],"split_type":[0,0,0,0,0,0,0,0,0,0,0,0,0,0,0],"sum_hessian":[2.48E2,2.18E2,3E1,9.5E1,1.23E2,1.8E1,1.2E1,6E1,3.5E1,3.4E1,8.9E1,1.4E1,2E1,2E0,1.8E1],"tree_param":{"num_deleted":"0","num_feature":"13","num_nodes":"15","size_leaf_vector":"0"}},{"base_weights":[1.3101763E1,2.1101059E1,1.1276409E1,2.5367983E1,1.8264229E1,1.2635754E1,7.462941E0,2.6249434E1,6.5138435E0,1.3950563E1,1.1276372E1,8.817159E0,5.4851937E0,5.3828735E0,9.594539E0],"categories":[],"categories_nodes":[],"categories_segments":[],"categories_sizes":[],"default_left":[true,true,true,true,false,true,true,false,false,false,false,true,false,false,false],"id":7,"left_children":[1,3,5,7,-1,9,11,-1,-1,-1,-1,13,-1,-1,-1],"loss_changes":[3.3102305E3,6.927344E1,9.4246484E2,7.8299805E1,0E0,1.0363867E2,9.894287E1,0E0,0E0,0E0,0E0,3.1115967E1,0E0,0E0,0E0],"parents":[2147483647,0,0,1,1,2,2,3,3,5,5,6,6,11,11],"right_children":[2,4,6,8,-1,10,12,-1,-1,-1,-1,14,-1,-1,-1],"split_conditions":[-9.040737E-1,-2.1843761E-1,6.4134043E-1,1.332572E0,1.4611382E0,-3.085664E-1,1.2172964E0,2.0999546E0,5.211075E-1,1.116045E0,9.0210974E-1,-2.9432544E-1,4.3881547E-1,4.3062988E-1,7.675631E-1],"split_indices":[12,7,12,4,0,12,4,0,0,0,0,11,0,0,0],"split_type":[0,0,0,0,0,0,0,0,0,0,0,0,0,0,0],"sum_hessian":[2.42E2,4.3E1,1.99E2,1.4E1,2.9E1,1.45E2,5.4E1,1.3E1,1E0,6.9E1,7.6E1,3E1,2.4E1,7E0,2.3E1],"tree_param":{"num_deleted":"0","num_feature":"13","num_nodes":"15","size_leaf_vector":"0"}},{"base_weights":[1.1937232E1,2.1059212E1,1.0425336E1,2.3246788E1,1.5293722E1,1.1589067E1,6.998495E0,1.2850018E1,1.0211871E1,7.9787803E0,4.3379292E0,8.645958E0,5.494513E0,4.984812E0,1.7884488E0,2.2391534E0,8.794803E0,1.0153241E0,5.2309923E0,2.1564755E0,1.581707E-1,1.3447773E0,5.462032E0],"categories":[],"categories_nodes":[],"categories_segments":[],"categories_sizes":[],"default_left":[true,true,true,false,false,true,true,false,false,true,true,true,false,true,true,false,false,false,true,false,false,false,false],"id":8,"left_children":[1,3,5,-1,-1,7,9,-1,-1,11,13,15,-1,17,19,-1,-1,-1,21,-1,-1,-1,-1],"loss_changes":[3.0766172E3,6.0680664E1,7.4439453E2,0E0,0E0,1.3447266E2,1.0883472E2,0E0,0E0,1.7135254E1,1.9121582E1,7.961914E0,0E0,7.3925476E0,2.6588392E0,0E0,0E0,0E0,3.4292297E0,0E0,0E0,0E0,0E0],"parents":[2147483647,0,0,1,1,2,2,5,5,6,6,9,9,10,10,11,11,13,13,14,14,18,18],"right_children":[2,4,6,-1,-1,8,10,-1,-1,12,14,16,-1,18,20,-1,-1,-1,22,-1,-1,-1,-1],"split_conditions":[-9.817802E-1,3.7857133E-1,6.4134043E-1,1.859743E0,1.2234977E0,-2.9186314E-1,7.3950475E-1,1.0280014E0,8.1694967E-1,1.3115237E0,3.1542242E0,-6.6823235E0,4.3956104E-1,8.1307876E-1,2.5150099E0,1.7913227E-1,7.035842E-1,8.1225924E-2,-7.874285E-1,1.7251804E-1,1.2653655E-2,1.0758218E-1,4.3696254E-1],"split_indices":[12,11,12,0,0,12,0,0,0,10,0,11,0,0,12,0,0,0,11,0,0,0,0],"split_type":[0,0,0,0,0,0,0,0,0,0,0,0,0,0,0,0,0,0,0,0,0,0,0],"sum_hessian":[2.38E2,3.2E1,2.06E2,2.1E1,1.1E1,1.52E2,5.4E1,7.5E1,7.7E1,3.8E1,1.6E1,2.8E1,1E1,1.2E1,4E0,1E0,2.7E1,1E0,1.1E1,3E0,1E0,1E0,1E1],"tree_param":{"num_deleted":"0","num_feature":"13","num_nodes":"23","size_leaf_vector":"0"}},{"base_weights":[1.12086115E1,1.9059502E1,9.720427E0,2.5117096E1,1.6313452E1,1.0579594E1,5.321642E0,1.6839375E1,6.14233E0,2.1903273E1,1.0319064E1,6.1534386E0,4.1479874E0,1.2446297E1,9.552426E0,1.45002E1,1.0469634E1,4.2458878E0,9.644345E0],"categories":[],"categories_nodes":[],"categories_segments":[],"categories_sizes":[],"default_left":[true,true,true,false,true,true,true,false,false,false,true,false,false,true,true,false,false,false,false],"id":9,"left_children":[1,3,5,-1,7,9,11,-1,-1,-1,13,-1,-1,15,17,-1,-1,-1,-1],"loss_changes":[2.677209E3,2.223623E2,7.29791E2,0E0,5.1694336E1,2.8435547E2,9.620361E0,0E0,0E0,0E0,1.5997656E2,0E0,0E0,1.8703125E1,2.2461914E1,0E0,0E0,0E0,0E0],"parents":[2147483647,0,0,1,1,2,2,4,4,5,5,6,6,10,10,13,13,14,14],"right_children":[2,4,6,-1,8,10,12,-1,-1,-1,14,-1,-1,16,18,-1,-1,-1,-1],"split_conditions":[-9.3530154E-1,-4.264381E-1,1.1024956E0,2.0093677E0,-8.620492E-2,-1.3031539E0,1.3281384E0,1.34715E0,4.913864E-1,1.7522618E0,-5.9397423E-1,4.922751E-1,3.31839E-1,2.617188E-2,-1.156031E0,1.160016E0,8.375707E-1,3.3967102E-1,7.715476E-1],"split_indices":[12,7,12,0,4,7,4,0,0,0,12,0,0,7,7,0,0,0,0],"split_type":[0,0,0,0,0,0,0,0,0,0,0,0,0,0,0,0,0,0,0],"sum_hessian":[2.44E2,3.7E1,2.07E2,9E0,2.8E1,1.72E2,3.5E1,2.6E1,2E0,2E0,1.7E2,1.8E1,1.7E1,4.1E1,1.29E2,1.7E1,2.4E1,3E0,1.26E2],"tree_param":{"num_deleted":"0","num_feature":"13","num_nodes":"19","size_leaf_vector":"0"}},{"base_weights":[1.0445618E1,9.202132E0,1.9132849E1,7.7112684E0,1.024731E1,1.4193423E1,2.1784595E1,8.043183E0,5.6527195E0,1.0862392E1,8.111187E0,1.0973533E1,3.9444191E0],"categories":[],"categories_nodes":[],"categories_segments":[],"categories_sizes":[],"default_left":[true,true,true,true,true,false,false,false,false,true,false,false,false],"id":10,"left_children":[1,3,5,7,9,-1,-1,-1,-1,11,-1,-1,-1],"loss_changes":[2.4057207E3,2.4976367E2,7.064746E1,1.6710938E1,7.087402E1,0E0,0E0,0E0,0E0,2.6682617E1,0E0,0E0,0E0],"parents":[2147483647,0,0,1,1,2,2,3,3,4,4,9,9],"right_children":[2,4,6,8,10,-1,-1,-1,-1,12,-1,-1,-1],"split_conditions":[9.9730295E-1,-3.4647095E-1,1.5843346E0,1.3115237E0,8.393227E-1,1.1354738E0,1.7427676E0,6.434547E-1,4.5221755E-1,4.2587742E-1,6.4889497E-1,8.778826E-1,3.1555352E-1],"split_indices":[5,5,5,10,10,0,0,0,0,9,0,0,0],"split_type":[0,0,0,0,0,0,0,0,0,0,0,0,0],"sum_hessian":[2.38E2,2.1E2,2.8E1,9E1,1.2E2,1.2E1,1.6E1,7.5E1,1.5E1,9E1,3E1,8.8E1,2E0],"tree_param":{"num_deleted":"0","num_feature":"13","num_nodes":"13","size_leaf_vector":"0"}},{"base_weights":[9.609185E0,7.8734612E0,1.4888843E1,8.166701E0,4.0056267E0,1.2858441E1,1.914875E1,7.890408E0,1.2809877E1,4.377947E0,1.0570297E0,1.3043751E1,2.5377116E0,6.997308E0,9.176543E0,1.5831562E1,2.496549E0,1.7434382E-1,1.4112008E0,3.054894E0,7.0868216E0],"categories":[],"categories_nodes":[],"categories_segments":[],"categories_sizes":[],"default_left":[true,true,true,true,true,true,false,true,true,false,true,false,false,true,false,false,false,false,false,false,false],"id":11,"left_children":[1,3,5,7,9,11,-1,13,15,-1,17,-1,-1,19,-1,-1,-1,-1,-1,-1,-1],"loss_changes":[2.1096309E3,1.7711523E2,2.640879E2,1.18296875E2,1.1839722E1,4.9137695E1,0E0,1.2416797E2,2.0978467E2,0E0,6.9183135E-1,0E0,0E0,1.3993164E1,0E0,0E0,0E0,0E0,0E0,0E0,0E0],"parents":[2147483647,0,0,1,1,2,2,3,3,4,4,5,5,7,7,8,8,10,10,13,13],"right_children":[2,4,6,8,10,12,-1,14,16,-1,18,-1,-1,20,-1,-1,-1,-1,-1,-1,-1],"split_conditions":[5.2573013E-1,9.408829E-1,1.5843346E0,3.1142348E-1,3.2249184E0,8.6290383E-1,1.5319E0,-2.0319071E-1,4.2471665E-1,3.5023573E-1,4.448526E0,1.0435001E0,2.0301692E-1,-4.7857122E0,7.3412347E-1,1.2665249E0,1.9972391E-1,1.39475055E-2,1.12896055E-1,2.4439152E-1,5.6694573E-1],"split_indices":[5,0,5,0,0,0,0,5,11,0,0,0,0,11,0,0,0,0,0,0,0],"split_type":[0,0,0,0,0,0,0,0,0,0,0,0,0,0,0,0,0,0,0,0,0],"sum_hessian":[2.42E2,1.84E2,5.8E1,1.7E2,1.4E1,4.2E1,1.6E1,1.63E2,7E0,1.2E1,2E0,4.1E1,1E0,1E2,6.3E1,5E0,2E0,1E0,1E0,3E0,9.7E1],"tree_param":{"num_deleted":"0","num_feature":"13","num_nodes":"21","size_leaf_vector":"0"}},{"base_weights":[8.467869E0,7.6123543E0,1.5973432E1,8.552178E0,4.5482063E0,1.6330612E1,3.521947E0,8.297308E0,1.3702204E1,6.2856464E0,3.7366662E0,1.1603553E1,1.8264362E1,7.577397E0,1.01514635E1,1.5296631E1,2.06782E0,4.019922E0,1.3671454E0,5.3170505E0,7.8479977E0,1.7974749E0,-3.92251E-1,7.900141E0,9.779334E-1,7.773902E-1,2.2184012E0,9.9871516E-1,1.6737008E-1],"categories":[],"categories_nodes":[],"categories_segments":[],"categories_sizes":[],"default_left":[true,true,true,true,true,true,false,true,true,false,true,false,false,true,false,false,false,false,true,false,true,true,false,false,false,true,false,true,true],"id":12,"left_children":[1,3,5,7,9,11,-1,13,15,-1,17,-1,-1,19,-1,-1,-1,-1,21,-1,23,25,-1,-1,-1,-1,-1,-1,-1],"loss_changes":[1.5671602E3,6.464863E2,5.8117676E1,1.23887695E2,5.8292847E1,1.6592285E1,0E0,1.5667285E2,9.822058E1,0E0,2.2693787E1,0E0,0E0,3.778662E1,0E0,0E0,0E0,0E0,5.2477827E0,0E0,3.3111816E1,4.223404E-1,0E0,0E0,0E0,2.3788309E-1,0E0,0E0,0E0],"parents":[2147483647,0,0,1,1,2,2,3,3,4,4,5,5,7,7,8,8,10,10,13,13,18,18,20,20,21,21,25,25],"right_children":[2,4,6,8,10,12,-1,14,16,-1,18,-1,-1,20,-1,-1,-1,-1,22,-1,24,26,-1,-1,-1,-1,-1,-1,-1],"split_conditions":[1.1537983E0,6.4134043E-1,8.614139E-2,3.44162E-1,-2.056431E-1,1.5954633E0,2.8175575E-1,3.407178E-1,-1.9206215E-1,5.028517E-1,3.2074661E0,9.282842E-1,1.461149E0,-6.9702065E-1,8.1211704E-1,1.2237304E0,1.654256E-1,3.2159373E-1,2.5150099E0,4.2536402E-1,3.351535E-1,4.448526E0,-3.138008E-2,6.3201123E-1,7.823467E-2,6.2191214E-2,1.7747208E-1,7.989721E-2,1.3389606E-2],"split_indices":[5,12,0,0,0,5,0,5,5,0,0,0,0,5,0,0,0,0,12,0,5,0,0,0,0,0,0,2147483647,2147483647],"split_type":[0,0,0,0,0,0,0,0,0,0,0,0,0,0,0,0,0,0,0,0,0,0,0,0,0,0,0,0,0],"sum_hessian":[2.62E2,2.37E2,2.5E1,1.8E2,5.7E1,2.4E1,1E0,1.74E2,6E0,1.6E1,4.1E1,9E0,1.5E1,1.29E2,4.5E1,5E0,1E0,3.6E1,5E0,1.6E1,1.13E2,4E0,1E0,1.12E2,1E0,2E0,2E0,1E0,1E0],"tree_param":{"num_deleted":"2","num_feature":"13","num_nodes":"29","size_leaf_vector":"0"}},{"base_weights":[8.407803E0,1.8690401E1,8.021978E0,2.306253E1,3.7160103E0,1.0405834E1,7.235768E0,1.1657873E1,7.3540816E0,4.7158523E0,7.688494E0,8.141503E0,1.26229515E1,9.388161E-1,7.6583285E0,5.44185E0,2.9671419E0,5.2778916E0,7.9155617E0,2.395516E0,1.2913023E1,1.1590939E0,5.606253E0,2.920292E0,6.7871037E0,9.725061E0,7.334248E0,1.5442095E0,5.746133E0,1.2022217E1,6.6264253E0,1.5127096E0,7.3748975E0,1.2722583E1,4.746438E0,6.920152E0,1.2571263E0,1.7542973E0,7.4117193E0],"categories":[],"categories_nodes":[],"categories_segments":[],"categories_sizes":[],"default_left":[true,true,true,false,false,true,true,true,true,true,true,false,true,false,false,true,false,true,true,false,false,false,true,false,false,true,true,false,false,true,true,false,true,false,false,false,false,false,false],"id":13,"left_children":[1,3,5,-1,-1,7,9,11,13,15,17,-1,19,-1,-1,21,-1,23,25,-1,-1,-1,27,-1,-1,29,31,-1,-1,33,35,-1,37,-1,-1,-1,-1,-1,-1],"loss_changes":[8.101465E2,4.3805933E2,3.651455E2,0E0,0E0,1.2823828E2,1.690918E2,2.6186523E1,2.9894897E1,2.1940063E1,4.0875E1,0E0,5.213379E1,0E0,0E0,7.5838623E0,0E0,3.710956E1,7.1731445E1,0E0,0E0,0E0,1.9224854E0,0E0,0E0,1.3387744E2,1.4164551E1,0E0,0E0,2.1144043E1,1.4957031E1,0E0,8.936035E0,0E0,0E0,0E0,0E0,0E0,0E0],"parents":[2147483647,0,0,1,1,2,2,5,5,6,6,7,7,8,8,9,9,10,10,12,12,15,15,17,17,18,18,22,22,25,25,26,26,29,29,30,30,32,32],"right_children":[2,4,6,-1,-1,8,10,12,14,16,18,-1,20,-1,-1,22,-1,24,26,-1,-1,-1,28,-1,-1,30,32,-1,-1,34,36,-1,38,-1,-1,-1,-1,-1,-1],"split_conditions":[-1.2735965E0,3.797682E-1,-8.355161E-1,1.8450024E0,2.9728082E-1,9.636508E-1,-9.9871993E-1,-6.650091E-1,-1.9201492E-1,3.7391692E-1,-3.521733E-1,6.513203E-1,-1.9618358E-1,7.510529E-2,6.1266625E-1,-7.185666E0,2.3737134E-1,-3.6513025E-1,1.639359E-1,1.9164127E-1,1.0330418E0,9.2727505E-2,-1.2243724E0,2.3362334E-1,5.429683E-1,-6.4079955E-2,-9.5945513E-1,1.2353676E-1,4.5969063E-1,2.132515E0,8.468801E-2,1.2101676E-1,-8.149485E-1,1.0178066E0,3.7971503E-1,5.536122E-1,1.00570105E-1,1.4034377E-1,5.929375E-1],"split_indices":[7,11,2,0,0,7,7,8,1,11,11,0,11,0,0,11,0,8,11,0,0,0,7,0,0,7,7,0,0,2,8,0,8,0,0,0,0,0,0],"split_type":[0,0,0,0,0,0,0,0,0,0,0,0,0,0,0,0,0,0,0,0,0,0,0,0,0,0,0,0,0,0,0,0,0,0,0,0,0,0,0],"sum_hessian":[2.41E2,7E0,2.34E2,5E0,2E0,5.5E1,1.79E2,3.7E1,1.8E1,2.9E1,1.5E2,1E1,2.7E1,1E0,1.7E1,1.9E1,1E1,1.5E1,1.35E2,1E0,2.6E1,1E0,1.8E1,7E0,8E0,2.9E1,1.06E2,1E0,1.7E1,1.5E1,1.4E1,1E0,1.05E2,1.3E1,2E0,1.3E1,1E0,1E0,1.04E2],"tree_param":{"num_deleted":"0","num_feature":"13","num_nodes":"39","size_leaf_vector":"0"}},{"base_weights":[7.3909936E0,1.4387508E1,6.6450047E0,8.154494E0,5.079202E0,7.8277006E0,1.8072342E1,5.8860126E0,3.0779667E0,1.0274863E1,7.333406E0,1.11273E0,5.9306536E0,4.6201835E0,2.214584E0,8.01978E0,6.455347E0,5.636388E0,2.6645813E0,2.448692E0,-3.1843853E-1,1.5740291E0,2.8102438E0,1.7588854E-2,-4.9524665E-1,1.9049928E0,-5.3684044E-1,1.5704756E0,3.118298E0],"categories":[],"categories_nodes":[],"categories_segments":[],"categories_sizes":[],"default_left":[true,false,true,true,true,true,false,true,true,false,true,false,false,true,true,false,false,false,false,true,true,true,true,true,true,false,false,false,false],"id":14,"left_children":[1,-1,3,5,7,9,-1,11,13,-1,15,-1,-1,17,19,-1,-1,-1,-1,21,-1,25,27,-1,-1,-1,-1,-1,-1],"loss_changes":[1.2509795E3,0E0,5.1401855E2,2.409834E2,1.7240796E2,6.496631E1,0E0,1.108667E1,3.7703033E1,0E0,8.49707E0,0E0,0E0,8.828918E0,1.560479E1,0E0,0E0,0E0,0E0,2.8500214E0,1.8694791E-1,7.3102684E0,8.315277E-1,0E0,0E0,0E0,0E0,0E0,0E0],"parents":[2147483647,0,0,2,2,3,3,4,4,5,5,7,7,8,8,10,10,13,13,14,14,19,19,20,20,21,21,22,22],"right_children":[2,-1,4,6,8,10,-1,12,14,-1,16,-1,-1,18,20,-1,-1,-1,-1,22,-1,26,28,-1,-1,-1,-1,-1,-1],"split_conditions":[-1.044962E0,1.1510006E0,-5.8743812E-2,6.10181E-1,1.1024956E0,-1.1203115E0,1.4457873E0,-7.185666E0,6.976624E-1,8.2198906E-1,-5.9397423E-1,8.90184E-2,4.744523E-1,-3.462139E-1,3.2540455E0,6.4158237E-1,5.1642776E-1,4.5091102E-1,2.131665E-1,3.5170868E-1,-2.5475081E-2,3.2910147E-1,1.3116493E0,1.4071083E-3,-3.9619733E-2,1.5239942E-1,-4.2947233E-2,1.2563804E-1,2.4946384E-1],"split_indices":[12,0,12,0,12,10,0,11,10,0,12,0,0,9,0,0,0,0,0,11,0,11,12,2147483647,2147483647,0,0,0,0],"split_type":[0,0,0,0,0,0,0,0,0,0,0,0,0,0,0,0,0,0,0,0,0,0,0,0,0,0,0,0,0],"sum_hessian":[2.57E2,2.3E1,2.34E2,1.17E2,1.17E2,1.15E2,2E0,8.2E1,3.5E1,1.6E1,9.9E1,1E0,8.1E1,1.1E1,2.4E1,5.1E1,4.8E1,6E0,5E0,2.2E1,2E0,8E0,1.4E1,1E0,1E0,7E0,1E0,4E0,1E1],"tree_param":{"num_deleted":"2","num_feature":"13","num_nodes":"29","size_leaf_vector":"0"}},{"base_weights":[6.834376E0,1.185215E1,6.0240045E0,2.6673994E0,1.2084912E1,6.5242953E0,3.1716633E0,9.796425E0,6.238941E0,6.0057645E0,2.5046568E0,6.8831162E0,5.4930463E0,1.0313588E0,2.7256494E0,6.5086274E0,1.0899134E1,3.974345E0,5.7515507E0,1.4178065E0,3.011249E-1,1.4252433E0,2.9354482E0,6.698944E0,3.298653E0,4.2999697E0,1.3470646E0,6.2012386E0,4.599705E0,8.2780075E-1,3.0107334E0,6.979135E0,4.403941E0,3.7011638E0,6.4304924E-1,4.696623E0,1.3306756E0],"categories":[],"categories_nodes":[],"categories_segments":[],"categories_sizes":[],"default_left":[true,true,true,false,false,true,true,false,true,false,true,true,true,true,true,true,false,true,true,false,false,false,true,true,true,false,false,false,true,false,false,false,false,false,false,false,false],"id":15,"left_children":[1,3,5,-1,-1,7,9,-1,11,-1,13,15,17,19,21,23,-1,25,27,-1,-1,-1,29,31,33,-1,-1,-1,35,-1,-1,-1,-1,-1,-1,-1,-1],"loss_changes":[8.0691504E2,2.976294E1,2.475835E2,0E0,0E0,8.734131E1,4.1668518E1,0E0,3.3783203E1,0E0,5.654175E0,4.3362305E1,6.193115E0,9.840493E-1,1.8183899E0,2.188794E1,0E0,6.1847687E0,3.0723877E0,0E0,0E0,0E0,3.6384583E-1,1.2348145E1,4.033432E0,0E0,0E0,0E0,4.03656E-1,0E0,0E0,0E0,0E0,0E0,0E0,0E0,0E0],"parents":[2147483647,0,0,1,1,2,2,5,5,6,6,8,8,10,10,11,11,12,12,13,13,14,14,15,15,17,17,18,18,22,22,23,23,24,24,28,28],"right_children":[2,4,6,-1,-1,8,10,-1,12,-1,14,16,18,20,22,24,-1,26,28,-1,-1,-1,30,32,34,-1,-1,-1,36,-1,-1,-1,-1,-1,-1,-1,-1],"split_conditions":[-9.52731E-1,-1.9102855E0,1.170761E0,2.1339194E-1,9.6679294E-1,-9.9148834E-1,-1.4827642E-1,7.83714E-1,-2.1560916E-1,4.8046115E-1,9.316206E-1,7.606275E-1,-6.537157E-1,2.4939492E0,1.304387E0,3.8484842E-1,8.7193066E-1,5.365263E-1,1.1226434E0,1.1342452E-1,2.4089992E-2,1.1401946E-1,5.156592E-1,8.393227E-1,-3.8326132E-1,3.4399757E-1,1.0776517E-1,4.9609908E-1,1.0197055E0,6.622406E-2,2.4085866E-1,5.583308E-1,3.5231528E-1,2.960931E-1,5.144394E-2,3.7572983E-1,1.06454045E-1],"split_indices":[12,6,12,0,0,9,4,0,12,0,6,4,4,12,12,9,0,6,10,0,0,0,2,10,4,0,0,0,12,0,0,0,0,0,0,0,0],"split_type":[0,0,0,0,0,0,0,0,0,0,0,0,0,0,0,0,0,0,0,0,0,0,0,0,0,0,0,0,0,0,0,0,0,0,0,0,0],"sum_hessian":[2.15E2,2.8E1,1.87E2,1E0,2.7E1,1.58E2,2.9E1,1E1,1.48E2,4E0,2.5E1,7.5E1,7.3E1,4E0,2.1E1,7.1E1,4E0,1.3E1,6E1,2E0,2E0,4E0,1.7E1,6.6E1,5E0,1.1E1,2E0,4E1,2E1,1E0,1.6E1,5.7E1,9E0,4E0,1E0,1.9E1,1E0],"tree_param":{"num_deleted":"0","num_feature":"13","num_nodes":"37","size_leaf_vector":"0"}},{"base_weights":[6.6846547E0,5.737808E0,1.2507475E1,1.3432606E1,5.4063E0,1.4579517E1,9.049056E0,1.879596E1,3.370263E0,5.701469E0,2.2477431E0,3.54467E0,1.4995638E1,5.1853147E0,7.442897E0,5.017889E0,1.8150746E0,4.5117817E0,5.565984E0,1.2482474E0,2.7406876E0,5.059547E0,3.5249672E0,9.181986E-1,5.6083655E0,1.5521182E0,-2.8202805E-1,3.9086301E0,1.7225399E0,1.0724521E0,5.6481752E0,4.38262E-1,1.9150316E0,-5.723767E-1,1.4933467E-1],"categories":[],"categories_nodes":[],"categories_segments":[],"categories_sizes":[],"default_left":[true,true,true,true,true,true,false,false,false,true,true,false,false,true,false,false,true,true,true,true,false,false,true,false,true,true,true,false,false,false,false,false,false,false,false],"id":16,"left_children":[1,3,5,7,9,11,-1,-1,-1,13,15,-1,-1,17,-1,-1,19,21,23,25,-1,-1,27,-1,29,31,33,-1,-1,-1,-1,-1,-1,-1,-1],"loss_changes":[1.262457E3,4.6306592E2,1.04546875E2,3.6839587E2,1.7644287E2,3.4090088E1,0E0,0E0,0E0,1.2769287E2,1.3664703E1,0E0,0E0,1.2320801E1,0E0,0E0,6.022873E0,1.3516724E1,1.2381836E1,6.4828186E0,0E0,0E0,9.8638E0,0E0,9.833008E0,3.6072788E0,4.6121246E-1,0E0,0E0,0E0,0E0,0E0,0E0,0E0,0E0],"parents":[2147483647,0,0,1,1,2,2,3,3,4,4,5,5,9,9,10,10,13,13,16,16,17,17,18,18,19,19,22,22,24,24,25,25,26,26],"right_children":[2,4,6,8,10,12,-1,-1,-1,14,16,-1,-1,18,-1,-1,20,22,24,26,-1,-1,28,-1,30,32,34,-1,-1,-1,-1,-1,-1,-1,-1],"split_conditions":[9.9730295E-1,-1.2735965E0,3.353517E-1,1.1469762E0,5.696268E-1,-4.8914635E-1,7.2392446E-1,1.5036768E0,2.6962104E-1,2.5516695E-1,-2.8385735E0,2.835736E-1,1.199651E0,-4.7723156E-1,5.9543175E-1,4.014311E-1,-3.7011915E-1,-9.118756E-2,-1.1440341E0,-7.902224E-1,2.19255E-1,4.0476376E-1,-2.698776E-1,7.3455885E-2,-2.8590465E0,-1.1964864E0,9.5047307E-1,3.126904E-1,1.3780318E-1,8.579616E-2,4.5185402E-1,3.5060957E-2,1.5320252E-1,-4.5790136E-2,1.1946773E-2],"split_indices":[5,7,11,0,0,11,0,0,0,5,5,0,0,5,0,0,5,7,7,5,0,0,0,0,11,7,0,0,0,0,0,0,0,0,0],"split_type":[0,0,0,0,0,0,0,0,0,0,0,0,0,0,0,0,0,0,0,0,0,0,0,0,0,0,0,0,0,0,0,0,0,0,0],"sum_hessian":[2.41E2,2.09E2,3.2E1,7E0,2.02E2,1.8E1,1.4E1,4E0,3E0,1.84E2,1.8E1,1E0,1.7E1,1.45E2,3.9E1,1E0,1.7E1,5.7E1,8.8E1,1.2E1,5E0,3.4E1,2.3E1,1E0,8.7E1,1E1,2E0,1.8E1,5E0,1E0,8.6E1,3E0,7E0,1E0,1E0],"tree_param":{"num_deleted":"0","num_feature":"13","num_nodes":"35","size_leaf_vector":"0"}},{"base_weights":[5.8869405E0,5.180215E0,1.1087134E1,4.294094E0,6.016526E0,1.134028E1,2.2526808E0,4.684184E0,3.1757324E0,7.7365246E0,5.488135E0,7.86984E0,1.3017439E1,4.230333E0,7.211186E0,3.9892104E0,2.2146132E0,8.121878E0,2.5886612E0,8.647282E0,5.2615757E0,3.8168802E0,1.337635E1,3.152817E0,4.6974354E0,9.147085E0,2.0205655E0,1.553867E0,4.2443504E0,8.35308E0,1.8645248E0,1.2072375E1,3.4814587E0,5.5665064E0,3.8040965E0,1.9386519E0,3.7948763E0,3.3070233E0,1.0821706E1,-5.4948187E-1,3.0604086E0,3.8297462E-1,1.9478259E0,3.1283147E0,5.7201104E0,3.1961155E-1,4.001901E0,6.177888E-1,3.9917455E0,4.8171735E0,1.4336133E-1,3.7074664E0,1.432871E1,3.4636295E0,7.2587013E-1,1.3589249E0,5.771874E0],"categories":[],"categories_nodes":[],"categories_segments":[],"categories_sizes":[],"default_left":[true,true,true,true,true,true,false,true,true,true,true,false,true,true,true,true,false,true,false,true,true,false,false,true,false,true,true,true,false,false,false,false,false,true,true,false,true,true,true,false,false,false,false,true,true,false,false,false,false,false,false,false,false,false,false,false,false],"id":17,"left_children":[1,3,5,7,9,11,-1,13,15,17,19,-1,21,23,25,27,-1,29,-1,31,33,-1,-1,35,-1,37,39,41,-1,-1,-1,-1,-1,43,45,-1,47,49,51,-1,-1,-1,-1,53,55,-1,-1,-1,-1,-1,-1,-1,-1,-1,-1,-1,-1],"loss_changes":[7.988667E2,1.2756641E2,3.483667E1,3.0495483E1,5.205957E1,4.888745E1,0E0,5.5510498E1,1.4620911E1,2.2617554E1,1.3907715E1,0E0,1.7790527E0,1.8408325E1,8.200293E1,2.7251587E0,0E0,1.3359619E1,0E0,2.8744232E1,1.4378906E1,0E0,0E0,1.0573074E1,0E0,3.267157E1,1.2371424E1,6.3788223E-1,0E0,0E0,0E0,0E0,0E0,6.074707E0,1.0438171E1,0E0,6.2905273E0,1.3642216E1,7.162512E1,0E0,0E0,0E0,0E0,2.3193054E0,5.475708E0,0E0,0E0,0E0,0E0,0E0,0E0,0E0,0E0,0E0,0E0,0E0,0E0],"parents":[2147483647,0,0,1,1,2,2,3,3,4,4,5,5,7,7,8,8,9,9,10,10,12,12,13,13,14,14,15,15,17,17,19,19,20,20,23,23,25,25,26,26,27,27,33,33,34,34,36,36,37,37,38,38,43,43,44,44],"right_children":[2,4,6,8,10,12,-1,14,16,18,20,-1,22,24,26,28,-1,30,-1,32,34,-1,-1,36,-1,38,40,42,-1,-1,-1,-1,-1,44,46,-1,48,50,52,-1,-1,-1,-1,54,56,-1,-1,-1,-1,-1,-1,-1,-1,-1,-1,-1,-1],"split_conditions":[1.1732733E0,-2.1571036E-1,3.4142876E0,4.275093E-1,-6.557964E-1,1.5843346E0,1.8021446E-1,1.359173E0,8.157127E-1,7.2127247E-1,-3.457901E-1,6.295872E-1,-6.650091E-1,-2.00838E-1,1.0941264E-1,4.37882E-1,1.7716905E-1,-4.1118628E-1,2.070929E-1,1.870045E-1,4.557167E-1,3.0535042E-1,1.070108E0,1.6478373E-1,3.7579483E-1,-9.887656E-1,3.6088455E-1,-6.0381895E-1,3.3954802E-1,6.682464E-1,1.4916198E-1,9.6579E-1,2.7851668E-1,-5.886581E-1,-1.0867739E0,1.5509215E-1,-6.6823235E0,-2.0039313E0,-1.910034E0,-4.395855E-2,2.4483268E-1,3.063797E-2,1.5582606E-1,4.3309462E-1,-1.4980723E0,2.5568923E-2,3.2015207E-1,4.9423102E-2,3.1933963E-1,3.8537386E-1,1.1468906E-2,2.965973E-1,1.1462967E0,2.7709034E-1,5.806961E-2,1.08713984E-1,4.617499E-1],"split_indices":[5,5,5,11,9,5,0,8,10,10,11,0,8,11,11,11,0,2,0,5,9,0,0,9,0,11,11,5,0,0,0,0,0,9,2,0,11,5,5,0,0,0,0,11,10,0,0,0,0,0,0,0,0,0,0,0,0],"split_type":[0,0,0,0,0,0,0,0,0,0,0,0,0,0,0,0,0,0,0,0,0,0,0,0,0,0,0,0,0,0,0,0,0,0,0,0,0,0,0,0,0,0,0,0,0,0,0,0,0,0,0,0,0,0,0,0,0],"sum_hessian":[2.32E2,2.06E2,2.6E1,1.03E2,1.03E2,2.5E1,1E0,7.4E1,2.9E1,2.1E1,8.2E1,1E1,1.5E1,6.5E1,9E0,1.4E1,1.5E1,1.9E1,2E0,3E0,7.9E1,1E0,1.4E1,2.2E1,4.3E1,6E0,3E0,2E0,1.2E1,1.8E1,1E0,1E0,2E0,6.3E1,1.6E1,9E0,1.3E1,2E0,4E0,1E0,2E0,1E0,1E0,5E0,5.8E1,1E0,1.5E1,1E0,1.2E1,1E0,1E0,2E0,2E0,4E0,1E0,1E0,5.7E1],"tree_param":{"num_deleted":"0","num_feature":"13","num_nodes":"57","size_leaf_vector":"0"}},{"base_weights":[5.4973164E0,4.531208E0,8.963182E0,1.4196437E1,4.3644075E0,7.66181E0,1.1421439E1,5.19454E0,3.6304383E0,1.43919325E1,6.9090486E0,1.1864958E1,2.1625738E0,6.7062035E0,4.1927686E0,2.308334E0,3.898591E0,7.0448303E0,1.010448E0,8.548914E0,5.739538E0,3.065523E0,4.953848E0,2.8016388E0,1.1565093E0,4.326001E0,2.8995702E0,2.3935413E0,5.91864E0,8.7248373E-1,3.118345E0,2.4075994E0,5.128219E0,2.9361987E0,5.2618074E-1,2.0350986E0,-2.3085475E-1,4.3618207E0,1.0884285E0,1.1454461E0,3.12538E0,1.6775408E0,6.0300994E0,4.6244864E0,2.410134E0,9.120042E-1,2.479827E0,1.3762689E-1,-3.995576E-1,3.4574764E0,4.696578E0,3.3083758E0,1.6951225E0],"categories":[],"categories_nodes":[],"categories_segments":[],"categories_sizes":[],"default_left":[true,true,true,false,true,true,true,true,true,false,true,false,false,true,true,true,true,false,false,false,true,true,true,true,true,true,true,false,true,true,true,false,false,true,false,true,true,true,false,false,true,false,false,false,false,true,true,false,false,false,false,false,false],"id":18,"left_children":[1,3,5,-1,7,9,11,13,15,-1,17,-1,-1,19,21,23,25,-1,-1,-1,27,-1,31,33,35,37,39,-1,41,-1,-1,-1,-1,43,-1,-1,47,49,-1,-1,51,-1,-1,-1,-1,-1,-1,-1,-1,-1,-1,-1,-1],"loss_changes":[8.199248E2,2.6531055E2,8.8441895E1,0E0,1.0360913E2,9.814624E1,4.4151123E1,1.11201904E2,2.9998535E1,0E0,2.2515747E1,0E0,0E0,1.3278076E1,3.4573425E1,8.692093E0,2.588562E1,0E0,0E0,0E0,1.4146729E0,2.911682E-1,2.3050537E0,2.741623E0,1.0221197E1,2.326538E0,8.3029785E0,0E0,1.229248E0,0E0,0E0,0E0,0E0,4.0029907E-1,0E0,2.3574829E-1,3.036455E-1,1.9257812E0,0E0,0E0,1.1969147E0,0E0,0E0,0E0,0E0,0E0,0E0,0E0,0E0,0E0,0E0,0E0,0E0],"parents":[2147483647,0,0,1,1,2,2,4,4,5,5,6,6,7,7,8,8,10,10,13,13,14,14,15,15,16,16,20,20,21,21,22,22,23,23,24,24,25,25,26,26,28,28,33,33,35,35,36,36,37,37,40,40],"right_children":[2,4,6,-1,8,10,12,14,16,-1,18,-1,-1,20,22,24,26,-1,-1,-1,28,-1,32,34,36,38,40,-1,42,-1,-1,-1,-1,44,-1,-1,48,50,-1,-1,52,-1,-1,-1,-1,-1,-1,-1,-1,-1,-1,-1,-1],"split_conditions":[5.2573013E-1,-1.2821363E0,1.63024E0,1.1357149E0,-1.7487848E-1,-1.260203E0,1.332572E0,1.6040489E-1,-1.1567408E0,1.1513546E0,1.1241891E0,9.491966E-1,1.7300591E-1,-2.4611759E-1,-2.1362375E-1,-7.763117E-1,-2.0957726E-1,5.635864E-1,8.0835834E-2,6.839131E-1,-8.00027E-1,2.4524182E-1,-1.1680224E0,1.6705815E0,1.3281384E0,4.2139983E-1,-8.041331E-1,1.914833E-1,-2.3137325E-1,6.97987E-2,2.494676E-1,1.9260795E-1,4.1025752E-1,-2.8385735E0,4.2094458E-2,1.6280788E-1,-5.2661455E-1,-9.870206E-1,8.707428E-2,9.163568E-2,9.1000795E-1,1.3420326E-1,4.8240793E-1,3.699589E-1,1.9281073E-1,7.296033E-2,1.9838615E-1,1.101015E-2,-3.1964608E-2,2.765981E-1,3.7572622E-1,2.6467007E-1,1.3560979E-1],"split_indices":[5,7,5,0,4,7,4,7,7,0,4,0,0,7,5,5,7,0,0,0,4,5,4,3,4,5,5,0,7,2147483647,2147483647,0,0,5,0,5,5,7,0,0,7,0,0,0,0,2147483647,2147483647,0,0,0,0,0,0],"split_type":[0,0,0,0,0,0,0,0,0,0,0,0,0,0,0,0,0,0,0,0,0,0,0,0,0,0,0,0,0,0,0,0,0,0,0,0,0,0,0,0,0,0,0,0,0,0,0,0,0,0,0,0,0],"sum_hessian":[2.56E2,2.02E2,5.4E1,2E0,2E2,3.8E1,1.6E1,9.1E1,1.09E2,2E0,3.6E1,1.5E1,1E0,3.4E1,5.7E1,2E1,8.9E1,3.5E1,1E0,9E0,2.5E1,2.5E1,3.2E1,1.3E1,7E0,6E1,2.9E1,2E0,2.3E1,1E0,2.4E1,3E0,2.9E1,1.2E1,1E0,4E0,3E0,5.9E1,1E0,4E0,2.5E1,1E0,2.2E1,1E0,1.1E1,2E0,2E0,1E0,2E0,1.9E1,4E1,2.1E1,4E0],"tree_param":{"num_deleted":"4","num_feature":"13","num_nodes":"53","size_leaf_vector":"0"}},{"base_weights":[5.1879015E0,4.3692846E0,1.013741E1,5.6904845E0,3.2773702E0,7.8054547E0,1.2035729E1,5.096046E0,1.596561E1,3.911741E0,1.7220545E0,2.064579E0,8.009693E0,1.2499471E1,2.0760708E0,4.463656E0,5.869801E0,2.4600446E0,4.176336E0,1.9090644E0,1.0597582E-1,3.5948493E0,5.0300717E0,5.9990244E0,4.1504192E-1,2.691488E0,5.59961E-1,4.517527E0,3.3858154E0,1.1303823E0,2.3976228E0,8.2605094E-1,-6.4942455E-1,9.934416E-1,5.128239E0,6.3138995E0,2.5950952E0,2.9999855E0,1.5361954E0,4.5723667E0,9.7002983E-1,2.7254868E-1,1.2413914E0,1.321218E-1,2.509906E0,-1.6867828E-1,-8.0545855E-1,2.3902225E-1,3.1243577E0,8.080368E-1,3.1537535E0,3.3350215E0,4.9013133E0,6.604917E-1,1.5218923E0,7.4230576E-1,2.5668669E0],"categories":[],"categories_nodes":[],"categories_segments":[],"categories_sizes":[],"default_left":[true,true,true,true,true,true,true,true,false,true,true,false,false,false,false,true,true,true,true,true,true,false,true,true,false,true,false,true,false,true,true,false,true,false,false,false,true,true,false,true,false,false,true,false,true,true,true,false,false,false,false,false,false,false,false,true,true],"id":19,"left_children":[1,3,5,7,9,11,13,15,-1,17,19,-1,-1,-1,-1,21,23,25,27,29,31,-1,33,35,-1,37,-1,39,-1,41,43,-1,-1,-1,-1,-1,47,49,-1,51,-1,-1,53,-1,-1,-1,-1,-1,-1,-1,-1,-1,-1,-1,-1,-1,-1],"loss_changes":[1.00511035E3,3.0450098E2,6.542041E1,5.2943164E2,1.1659473E2,5.741089E0,5.7186768E1,2.0773438E1,0E0,2.352771E1,1.128215E1,0E0,0E0,0E0,0E0,9.967651E0,2.5705444E1,5.5290527E0,4.393921E0,1.0224442E1,3.2561827E0,0E0,7.5859375E0,2.5415527E1,0E0,3.8111115E-1,0E0,4.902771E0,0E0,1.0900726E0,4.7559357E0,0E0,8.917487E-2,0E0,0E0,0E0,5.4881134E0,8.2216644E-1,0E0,2.7839355E0,0E0,0E0,1.11306E0,0E0,7.5912476E-3,0E0,0E0,0E0,0E0,0E0,0E0,0E0,0E0,0E0,0E0,0E0,0E0],"parents":[2147483647,0,0,1,1,2,2,3,3,4,4,5,5,6,6,7,7,9,9,10,10,15,15,16,16,17,17,18,18,19,19,20,20,22,22,23,23,25,25,27,27,29,29,30,30,32,32,36,36,37,37,39,39,42,42,44,44],"right_children":[2,4,6,8,10,12,14,16,-1,18,20,-1,-1,-1,-1,22,24,26,28,30,32,-1,34,36,-1,38,-1,40,-1,42,44,-1,-1,-1,-1,-1,48,50,-1,52,-1,-1,54,-1,-1,-1,-1,-1,-1,-1,-1,-1,-1,-1,-1,-1,-1],"split_conditions":[9.9730295E-1,-2.1778785E-1,1.6434551E0,3.696047E-1,1.1024956E0,-1.7214026E0,8.614139E-2,2.5516695E-1,1.2772487E0,-6.537157E-1,3.2074661E0,1.6516632E-1,6.4077544E-1,9.999576E-1,1.6608566E-1,-2.9577452E-1,9.7991455E-1,5.7118374E-1,1.1226434E0,1.6232014E0,1.1603594E0,2.8758794E-1,-1.0660477E0,-1.6157745E-1,3.3203352E-2,2.726815E-1,4.479688E-2,7.0137286E0,2.7086523E-1,-2.1707484E-1,5.330606E-1,6.608407E-2,-5.1953964E-2,7.947533E-2,4.1025913E-1,5.0511193E-1,-1.1724067E-1,-1.2050076E0,1.2289563E-1,-7.526635E-1,7.760239E-2,2.1803893E-2,1.2579083E0,1.0569744E-2,2.0079248E-1,-1.34942625E-2,-6.443668E-2,1.912178E-2,2.499486E-1,6.464294E-2,2.5230026E-1,2.668017E-1,3.9210504E-1,5.2839335E-2,1.2175138E-1,5.9384458E-2,2.0534934E-1],"split_indices":[5,12,5,0,12,6,0,5,0,4,0,0,0,0,0,0,5,6,10,12,6,0,4,4,0,10,0,0,0,0,6,0,0,0,0,0,4,6,0,5,0,0,12,0,6,2147483647,2147483647,0,0,0,0,0,0,0,0,2147483647,2147483647],"split_type":[0,0,0,0,0,0,0,0,0,0,0,0,0,0,0,0,0,0,0,0,0,0,0,0,0,0,0,0,0,0,0,0,0,0,0,0,0,0,0,0,0,0,0,0,0,0,0,0,0,0,0,0,0,0,0,0,0],"sum_hessian":[2.58E2,2.23E2,3.5E1,9.9E1,1.24E2,1.8E1,1.7E1,9.5E1,4E0,8.7E1,3.7E1,1E0,1.7E1,1.6E1,1E0,5.6E1,3.9E1,1.5E1,7.2E1,3.3E1,4E0,2.5E1,3.1E1,3.8E1,1E0,1.3E1,2E0,4.7E1,2.5E1,1.4E1,1.9E1,2E0,2E0,1E0,3E1,3.4E1,4E0,9E0,4E0,4.6E1,1E0,2E0,1.2E1,1E0,1.8E1,1E0,1E0,1E0,3E0,1E0,8E0,1.2E1,3.4E1,5E0,7E0,1E0,1.7E1],"tree_param":{"num_deleted":"4","num_feature":"13","num_nodes":"57","size_leaf_vector":"0"}},{"base_weights":[4.8626122E0,7.8006716E0,3.9580026E0,1.2544479E1,6.3225827E0,1.3212072E1,3.7953348E0,4.726376E0,1.3536282E1,8.134666E0,5.0245795E0,4.410022E0,2.6839945E0,8.449478E0,1.3914394E0,1.518371E0,5.2207956E0,7.7585034E0,4.17401E0,1.6446676E0,3.5212538E0,3.023692E0,8.971336E0,5.8280935E0,3.7524178E0,4.9878736E0,3.7852097E0,2.265994E0,1.2913651E0,4.897199E0,2.877921E0,2.470488E0,5.1466756E0,3.429742E0,5.191711E0,2.6770613E0,1.2373015E0,1.9639006E0,8.989153E-1,5.273029E0,2.1373107E0,1.8434777E0,3.4076655E0,6.337533E0,4.405143E0,3.158276E0,4.5986705E0,1.3202925E0,5.3739343E0,3.2137728E-1,1.3859382E0,-7.7948165E-1,1.0525327E0,2.0184803E0,6.4564294E-1,3.5873666E0,1.76373E-1],"categories":[],"categories_nodes":[],"categories_segments":[],"categories_sizes":[],"default_left":[true,true,true,true,true,false,true,false,false,true,true,true,true,true,false,false,true,false,true,true,true,false,false,false,false,true,true,true,true,true,true,false,true,true,true,false,true,false,true,true,true,true,true,false,false,false,false,false,false,true,true,false,false,false,false,false,false],"id":20,"left_children":[1,3,5,7,9,-1,11,-1,-1,13,15,17,19,21,-1,-1,23,-1,25,27,29,-1,-1,-1,-1,31,33,35,37,-1,41,-1,43,45,47,-1,-1,-1,51,-1,-1,53,55,-1,-1,-1,-1,-1,-1,-1,-1,-1,-1,-1,-1,-1,-1],"loss_changes":[6.468633E2,3.3438086E2,2.4640747E2,3.682483E1,6.967493E1,0E0,1.2137305E2,0E0,0E0,2.6454224E1,1.2712097E1,6.561084E1,5.686212E1,2.100879E1,0E0,0E0,3.0993042E0,0E0,1.845874E1,4.5373306E0,2.042865E1,0E0,0E0,0E0,0E0,1.2770386E0,2.4190796E1,1.3391457E0,4.5690956E0,1.3964844E-1,9.609772E0,0E0,3.4014893E-1,7.688843E0,3.486786E0,0E0,2.35291E-1,0E0,5.203556E0,0E0,0E0,1.2122726E0,9.81929E0,0E0,0E0,0E0,0E0,0E0,0E0,0E0,0E0,0E0,0E0,0E0,0E0,0E0,0E0],"parents":[2147483647,0,0,1,1,2,2,3,3,4,4,6,6,9,9,10,10,11,11,12,12,13,13,16,16,18,18,19,19,20,20,25,25,26,26,27,27,28,28,29,29,30,30,32,32,33,33,34,34,36,36,38,38,41,41,42,42],"right_children":[2,4,6,8,10,-1,12,-1,-1,14,16,18,20,22,-1,-1,24,-1,26,28,30,-1,-1,-1,-1,32,34,36,38,-1,42,-1,44,46,48,-1,-1,-1,52,-1,-1,54,56,-1,-1,-1,-1,-1,-1,-1,-1,-1,-1,-1,-1,-1,-1],"split_conditions":[-8.3145094E-1,-4.264381E-1,-1.3195467E0,-3.9575744E-1,-1.1154063E0,1.0569657E0,3.5665888E-1,3.7811008E-1,1.0829026E0,5.330606E-1,-3.1315395E-1,-9.9148834E-1,-9.5945513E-1,-1.7872517E0,1.1131515E-1,1.2146968E-1,1.1021194E0,6.206803E-1,-6.026889E-1,4.8182607E-1,-5.588188E-1,2.4189535E-1,7.177069E-1,4.6624747E-1,3.0019343E-1,-8.205575E-1,-6.525141E-2,-1.1259471E0,-1.2181678E0,3.9177594E-1,-3.462139E-1,1.9763905E-1,2.617188E-2,9.212234E-1,-4.4692147E-1,2.141649E-1,9.8984115E-2,1.5711205E-1,-1.2030802E0,4.218423E-1,1.7098485E-1,1.4435554E-1,1.1809282E0,5.0700265E-1,3.5241142E-1,2.526621E-1,3.6789364E-1,1.05623394E-1,4.2991474E-1,2.5710182E-2,1.1087505E-1,-6.2358532E-2,8.420261E-2,1.6147842E-1,5.1651433E-2,2.8698933E-1,1.410984E-2],"split_indices":[12,7,7,6,12,0,12,0,0,6,7,9,7,6,0,0,7,0,12,9,9,0,0,0,0,12,8,7,7,7,9,0,7,6,9,0,6,0,7,2147483647,2147483647,7,12,0,0,0,0,0,0,2147483647,2147483647,0,0,0,0,0,0],"split_type":[0,0,0,0,0,0,0,0,0,0,0,0,0,0,0,0,0,0,0,0,0,0,0,0,0,0,0,0,0,0,0,0,0,0,0,0,0,0,0,0,0,0,0,0,0,0,0,0,0,0,0,0,0,0,0,0,0],"sum_hessian":[2.54E2,5.8E1,1.96E2,1.2E1,4.6E1,2E0,1.94E2,2E0,1E1,1.7E1,2.9E1,1.23E2,7.1E1,1.6E1,1E0,2E0,2.7E1,6E0,1.17E2,3.3E1,3.8E1,2E0,1.4E1,1.7E1,1E1,3.4E1,8.3E1,1E1,2.3E1,1E1,2.8E1,3E0,3.1E1,6.9E1,1.4E1,6E0,4E0,7E0,1.6E1,8E0,2E0,1.1E1,1.7E1,9E0,2.2E1,5.9E1,1E1,1E0,1.3E1,1E0,3E0,1E0,1.5E1,9E0,2E0,1.6E1,1E0],"tree_param":{"num_deleted":"4","num_feature":"13","num_nodes":"57","size_leaf_vector":"0"}},{"base_weights":[4.1914477E0,3.5852683E0,8.114289E0,2.3879411E0,3.9744415E0,2.6577923E0,8.389462E0,1.4524761E0,2.8809931E0,8.906628E0,3.887405E0,9.313195E0,5.6106772E0,7.157352E-1,2.5602133E0,3.5462456E0,2.0556853E0,3.5407572E0,4.798714E0,5.9458847E0,1.2969046E0,9.8507416E-1,-2.0388079E-1,2.8482766E0,2.718854E-1,2.5225086E0,5.1733017E0,1.3793575E0,2.7286754E0,1.4418182E0,3.6201684E0,4.95355E0,1.1862789E0,4.5243663E-1,1.2248046E0,-7.3432255E-1,2.1770732E-1,2.7253132E0,4.4426918E-2,1.5048721E0,6.2106133E-2,3.6503801E0,1.0313034E-1,1.2974325E0,-5.433715E-1,2.8966486E0,4.2031097E-1,3.8468065E0,2.882251E0],"categories":[],"categories_nodes":[],"categories_segments":[],"categories_sizes":[],"default_left":[true,true,true,true,true,false,true,true,true,false,true,false,true,true,true,true,true,true,true,false,false,true,true,false,false,true,false,true,false,false,true,false,false,true,false,false,false,true,false,false,false,true,false,false,false,false,false,false,false],"id":21,"left_children":[1,3,5,7,9,-1,11,13,15,-1,17,-1,19,21,23,25,27,29,31,-1,-1,33,35,-1,-1,37,-1,39,-1,-1,41,-1,-1,43,-1,-1,-1,45,-1,-1,-1,47,-1,-1,-1,-1,-1,-1,-1],"loss_changes":[5.535044E2,9.022632E1,2.575E1,2.1183258E1,3.406128E1,0E0,2.4752441E1,1.53059845E1,1.1926361E1,0E0,3.323755E1,0E0,6.7488403E0,3.6684756E0,4.499058E0,1.6932495E1,4.4290924E0,1.4615234E1,1.7056396E1,0E0,0E0,8.5043716E-1,1.0543791E0,0E0,0E0,6.412277E0,0E0,1.7252159E0,0E0,0E0,1.1736572E1,0E0,0E0,4.912257E0,0E0,0E0,0E0,3.5216599E0,0E0,0E0,0E0,5.962036E0,0E0,0E0,0E0,0E0,0E0,0E0,0E0],"parents":[2147483647,0,0,1,1,2,2,3,3,4,4,6,6,7,7,8,8,10,10,12,12,13,13,14,14,15,15,16,16,17,17,18,18,21,21,22,22,25,25,27,27,30,30,33,33,37,37,41,41],"right_children":[2,4,6,8,10,-1,12,14,16,-1,18,-1,20,22,24,26,28,30,32,-1,-1,34,36,-1,-1,38,-1,40,-1,-1,42,-1,-1,44,-1,-1,-1,46,-1,-1,-1,48,-1,-1,-1,-1,-1,-1,-1],"split_conditions":[9.9730295E-1,-5.94777E-1,-4.8595476E-1,-1.0963898E0,-1.3255908E0,2.1262339E-1,3.797682E-1,2.2459095E0,-1.0721402E-1,7.125302E-1,3.4419543E-1,7.450556E-1,-4.5863384E-1,-9.133321E-1,-1.1259471E0,-6.342325E-1,-7.658787E-1,-1.1556418E0,1.1241891E0,4.7567075E-1,1.0375236E-1,-1.1964864E0,-6.93543E-1,2.2786212E-1,2.1750832E-2,-7.528283E-1,4.1386414E-1,7.784115E-2,2.1829402E-1,1.15345456E-1,3.351535E-1,3.9628398E-1,9.4902314E-2,1.3148372E0,9.7984366E-2,-5.87458E-2,1.7416585E-2,4.2790824E-1,3.5541533E-3,1.2038977E-1,4.9684905E-3,9.9103314E-1,8.250427E-3,1.03794605E-1,-4.346972E-2,2.3173189E-1,3.3624876E-2,3.077445E-1,2.3058008E-1],"split_indices":[5,5,11,7,7,0,11,4,7,0,5,0,4,5,7,7,5,7,4,0,0,7,5,0,0,7,0,4,0,0,5,0,0,4,0,0,0,11,0,0,0,7,0,0,0,0,0,0,0],"split_type":[0,0,0,0,0,0,0,0,0,0,0,0,0,0,0,0,0,0,0,0,0,0,0,0,0,0,0,0,0,0,0,0,0,0,0,0,0,0,0,0,0,0,0,0,0,0,0,0,0],"sum_hessian":[2.44E2,2.13E2,3.1E1,5.4E1,1.59E2,2E0,2.9E1,2E1,3.4E1,1E0,1.58E2,2E1,9E0,1.3E1,7E0,1.7E1,1.7E1,1.18E2,4E1,8E0,1E0,1E1,3E0,6E0,1E0,1.2E1,5E0,1E1,7E0,5E0,1.13E2,3.8E1,2E0,4E0,6E0,1E0,2E0,1.1E1,1E0,9E0,1E0,1.12E2,1E0,2E0,2E0,1E1,1E0,8.6E1,2.6E1],"tree_param":{"num_deleted":"0","num_feature":"13","num_nodes":"49","size_leaf_vector":"0"}},{"base_weights":[3.8007822E0,4.033169E0,1.0200276E0,3.6509101E0,5.7899566E0,1.2661828E0,2.7566132E-1,5.042333E0,3.190979E0,7.0786395E0,2.6227045E0,7.84126E-1,1.446867E0,-3.3377898E-1,9.9636126E-1,2.2475686E0,5.445695E0,2.3189955E0,3.3402238E0,5.1340494E0,1.2380833E1,3.840609E0,7.646982E-1,1.4328916E0,-3.4227023E-1,3.0148506E-1,-6.460287E-1,9.9004745E-2,2.5891619E0,2.5391064E0,5.7296715E0,1.2563763E0,2.9123666E0,4.2549257E0,3.133923E0,2.172899E0,5.9762397E0,4.793552E0,1.9275141E0,-7.0494986E-1,1.1996177E0,1.1481762E-2,-5.248871E-1,1.8990791E0,7.096352E-1,3.0615637E0,4.8640347E-1,2.8396137E0,4.8974323E0,3.5164165E0,2.510522E0,1.2492714E0,6.2246466E0,4.090271E-1,2.2594206E0,8.1369096E-1,4.2650223E-2,3.2997766E0,1.1675953E0,1.332737E0,5.1206284E0,5.891895E-1,3.5581672E0,7.1800447E-1,2.6364558E0,6.909772E0,3.609467E0],"categories":[],"categories_nodes":[],"categories_segments":[],"categories_sizes":[],"default_left":[true,true,true,true,true,true,true,true,true,true,true,true,false,true,false,true,true,true,true,true,false,true,true,false,true,false,false,false,false,false,false,true,true,true,true,false,true,false,false,false,false,true,true,true,true,true,false,false,true,true,true,false,true,false,false,false,false,false,false,false,false,false,false,false,false,true,true],"id":22,"left_children":[1,3,5,7,9,11,13,15,17,19,21,23,-1,25,-1,27,29,31,33,35,-1,37,39,-1,-1,-1,-1,-1,-1,-1,-1,43,45,47,49,-1,51,-1,-1,-1,-1,-1,-1,53,55,57,-1,-1,59,61,63,-1,-1,-1,-1,-1,-1,-1,-1,-1,-1,-1,-1,-1,-1,-1,-1],"loss_changes":[1.4386792E2,1.2055786E2,3.1323242E0,9.6542725E1,1.2837183E2,8.48732E-2,2.967906E0,3.5107056E1,9.822754E0,1.9420105E2,2.421759E1,4.875039E0,0E0,9.8821187E-1,0E0,4.8812065E0,1.516626E1,1.08431015E1,7.9888916E0,3.6891235E1,0E0,3.5218506E0,4.6807423E0,0E0,1.9982994E-1,0E0,0E0,0E0,0E0,0E0,0E0,2.1662674E0,3.5780869E0,2.4613953E0,1.4062866E1,0E0,9.836853E0,0E0,0E0,0E0,0E0,0E0,0E0,1.223547E0,4.5112133E-1,2.0123749E0,0E0,0E0,1.9274292E0,4.86969E0,7.136566E0,0E0,1.4361572E-1,0E0,0E0,0E0,0E0,0E0,0E0,0E0,0E0,0E0,0E0,0E0,0E0,0E0,0E0],"parents":[2147483647,0,0,1,1,2,2,3,3,4,4,5,5,6,6,7,7,8,8,9,9,10,10,11,11,13,13,15,15,16,16,17,17,18,18,19,19,21,21,22,22,24,24,31,31,32,32,33,33,34,34,36,36,43,43,44,44,45,45,48,48,49,49,50,50,52,52],"right_children":[2,4,6,8,10,12,14,16,18,20,22,24,-1,26,-1,28,30,32,34,36,-1,38,40,-1,-1,-1,-1,-1,-1,-1,-1,44,46,48,50,-1,52,-1,-1,-1,-1,-1,-1,54,56,58,-1,-1,60,62,64,-1,-1,-1,-1,-1,-1,-1,-1,-1,-1,-1,-1,-1,-1,-1,-1],"split_conditions":[1.0389792E0,-6.525141E-2,3.2074661E0,-8.673977E-1,3.2923445E-1,1.7346298E0,5.3986616E0,-8.149485E-1,-2.4419065E-1,3.696047E-1,5.631087E-1,1.3144712E0,1.1574936E-1,3.2540455E0,7.97089E-2,-1.8174538E-1,-9.684487E-2,8.7533996E-2,1.5715373E-1,-5.690764E-1,9.904666E-1,4.1388756E-1,3.6088455E-1,1.14631325E-1,-2.7381618E-2,2.4118805E-2,-5.1682293E-2,7.92038E-3,2.0713295E-1,2.031285E-1,4.583737E-1,-1.881531E-1,1.6705815E0,-2.866828E-1,-2.7429205E-1,1.7383191E-1,-7.3197436E-1,3.8348415E-1,1.5420112E-1,-5.639599E-2,9.5969416E-2,9.185409E-4,-4.1990966E-2,-2.8885934E-1,-2.1312423E-3,1.9571658E0,3.8912278E-2,2.2716908E-1,-5.4415308E-2,-8.149485E-1,-2.7272108E-1,9.994171E-2,4.979717E-1,3.2722168E-2,1.8075365E-1,6.5095276E-2,3.4120178E-3,2.6398212E-1,9.3407616E-2,1.06618956E-1,4.0965027E-1,4.7135163E-2,2.8465337E-1,5.7440355E-2,2.1091646E-1,5.5278176E-1,2.8875735E-1],"split_indices":[0,8,0,2,11,0,0,8,11,0,0,0,0,0,0,1,11,2,11,2,0,1,11,0,0,0,0,0,0,0,0,0,3,0,0,0,11,0,0,0,0,2147483647,2147483647,0,0,2,0,0,2,8,0,0,11,0,0,0,0,0,0,0,0,0,0,0,0,2147483647,2147483647],"split_type":[0,0,0,0,0,0,0,0,0,0,0,0,0,0,0,0,0,0,0,0,0,0,0,0,0,0,0,0,0,0,0,0,0,0,0,0,0,0,0,0,0,0,0,0,0,0,0,0,0,0,0,0,0,0,0,0,0,0,0,0,0,0,0,0,0,0,0],"sum_hessian":[2.28E2,2.1E2,1.8E1,1.75E2,3.5E1,1.3E1,5E0,4.1E1,1.34E2,2.4E1,1.1E1,5E0,8E0,3E0,2E0,6E0,3.5E1,2.2E1,1.12E2,1.9E1,5E0,6E0,5E0,3E0,2E0,1E0,2E0,1E0,5E0,4E0,3.1E1,9E0,1.3E1,1.7E1,9.5E1,5E0,1.4E1,3E0,3E0,1E0,4E0,1E0,1E0,3E0,6E0,1.2E1,1E0,7E0,1E1,5.6E1,3.9E1,1E0,1.3E1,1E0,2E0,5E0,1E0,1E1,2E0,1E0,9E0,1E0,5.5E1,3E0,3.6E1,9E0,4E0],"tree_param":{"num_deleted":"4","num_feature":"13","num_nodes":"67","size_leaf_vector":"0"}},{"base_weights":[3.6687481E0,3.271743E0,8.2606125E0,8.829421E0,3.0567288E0,8.597727E0,1.0962782E0,1.2910463E1,1.5207639E0,3.5004692E0,1.5757368E0,3.1730375E0,4.9227157E0,1.0891296E0,2.2119045E0,3.3783634E0,2.4275017E0,1.4627585E0,7.5650144E-1,1.6766222E0,4.20152E0,3.221235E0,4.7488594E0,2.6288812E0,1.0495839E0,1.2901926E-1,1.5554293E0,2.9086912E-1,1.5131756E0,2.3705325E0,1.0742968E0,1.0197258E-1,3.2838528E0,5.0426416E0,1.1993008E0,9.5044136E-2,2.715981E0,1.2079576E0,1.2885761E-1,1.635375E0,2.980404E-1,6.63334E-1,-4.3774146E-1,1.6329662E0,3.9721584E-1,2.568712E0,4.916377E-1,1.2763201E0,5.3620017E-1],"categories":[],"categories_nodes":[],"categories_segments":[],"categories_sizes":[],"default_left":[true,true,true,true,true,false,false,false,false,true,true,true,false,true,true,true,true,true,true,true,false,true,true,true,true,false,true,true,true,true,true,false,false,false,false,false,false,false,false,false,false,false,false,true,true,false,false,false,false],"id":23,"left_children":[1,3,5,7,9,-1,-1,-1,-1,11,13,15,-1,17,19,21,23,25,27,29,-1,31,33,35,37,-1,39,41,-1,45,47,-1,-1,-1,-1,-1,-1,-1,-1,-1,-1,-1,-1,-1,-1,-1,-1,-1,-1],"loss_changes":[4.2325293E2,2.4666138E2,3.6463257E1,2.1898175E2,1.403772E2,0E0,0E0,0E0,0E0,6.354712E1,1.3997833E1,1.3383057E1,0E0,2.870369E0,1.6385773E1,7.959839E0,6.675247E0,1.5297012E0,6.2541714E0,5.394581E0,0E0,1.9197388E1,3.3375244E0,6.1420593E0,7.192583E-1,0E0,8.1938744E-1,3.8183331E0,2.8713036E-1,1.715992E0,6.2013435E-1,0E0,0E0,0E0,0E0,0E0,0E0,0E0,0E0,0E0,0E0,0E0,0E0,0E0,0E0,0E0,0E0,0E0,0E0],"parents":[2147483647,0,0,1,1,2,2,3,3,4,4,9,9,10,10,11,11,13,13,14,14,15,15,16,16,17,17,18,18,19,19,21,21,22,22,23,23,24,24,26,26,27,27,28,28,29,29,30,30],"right_children":[2,4,6,8,10,-1,-1,-1,-1,12,14,16,-1,18,20,22,24,26,28,30,-1,32,34,36,38,-1,40,42,-1,46,48,-1,-1,-1,-1,-1,-1,-1,-1,-1,-1,-1,-1,-1,-1,-1,-1,-1,-1],"split_conditions":[1.5815525E0,-1.2735965E0,3.4142876E0,6.849141E-1,6.239109E-1,6.878181E-1,8.770225E-2,1.032837E0,1.21661104E-1,5.904149E-1,-9.640341E-1,9.636508E-1,3.9381725E-1,1.134264E0,-2.0179966E-1,-6.525141E-2,1.08288735E-1,-6.6823235E0,8.823851E-2,-9.695709E-2,3.361216E-1,-1.5163611E0,3.5230148E-1,9.903234E-1,-4.640164E-1,1.0321541E-2,-9.91508E-1,-7.902224E-1,1.21054046E-1,-2.8387278E-1,-5.092262E-1,8.1578065E-3,2.6270822E-1,4.0341133E-1,9.594406E-2,7.603531E-3,2.1727848E-1,9.663661E-2,1.0308608E-2,1.3083E-1,2.384323E-2,5.306672E-2,-3.5019316E-2,1.3063729E-1,3.1777266E-2,2.0549695E-1,3.9331015E-2,1.021056E-1,4.2896014E-2],"split_indices":[5,7,5,12,12,0,0,0,0,5,7,7,0,8,5,8,12,11,5,7,0,5,12,7,5,0,7,5,7,5,5,0,0,0,0,0,0,0,0,0,0,0,0,2147483647,2147483647,0,0,0,0],"split_type":[0,0,0,0,0,0,0,0,0,0,0,0,0,0,0,0,0,0,0,0,0,0,0,0,0,0,0,0,0,0,0,0,0,0,0,0,0,0,0,0,0,0,0,0,0,0,0,0,0],"sum_hessian":[2.46E2,2.28E2,1.8E1,7E0,2.21E2,1.7E1,1E0,4E0,3E0,1.69E2,5.2E1,1.4E2,2.9E1,3.1E1,2.1E1,1.07E2,3.3E1,1.3E1,1.8E1,1.8E1,3E0,9.9E1,8E0,2.8E1,5E0,1E0,1.2E1,1.2E1,6E0,7E0,1.1E1,2E0,9.7E1,7E0,1E0,1E0,2.7E1,4E0,1E0,1.1E1,1E0,8E0,4E0,5E0,1E0,6E0,1E0,7E0,4E0],"tree_param":{"num_deleted":"2","num_feature":"13","num_nodes":"49","size_leaf_vector":"0"}},{"base_weights":[3.513678E0,6.370251E0,2.8907561E0,5.3011827E0,1.1416453E1,3.9544628E0,2.2917073E0,1.5024376E0,5.5760107E0,3.4158907E0,8.698321E0,2.6583374E0,1.1790795E0,5.711084E0,4.242277E-1,3.5359502E0,1.1719368E0,9.442665E0,2.116129E0,1.7038802E0,2.9267309E0,-2.3203373E-1,1.4141634E0,5.9435115E0,2.4238892E0,-2.865324E-1,3.6001537E0,1.6428947E0,3.1033325E-1,1.03891945E1,2.355009E0,1.7716813E0,3.8327217E-2,4.875507E0,2.6384814E0,3.9972082E-1,-6.478412E-1,2.1378949E0,1.0209143E0,6.068575E0,1.0332747E0,3.9139621E0,2.714077E0,3.742571E-1,9.124279E-2,5.8830833E-1,1.8525194E0,3.3645124E0,2.266258E0,-1.4275312E-1,-7.6861954E-1,6.1245584E-1,2.2393374E0,1.3796602E0,5.3674465E-1,1.4974556E0,3.9915333E0,2.004325E0,3.2233965E0,1.9288534E0,7.2611904E-1,4.001606E0,1.4276544E0,2.905089E-1,2.3425286E0,2.3572423E0,6.4804935E-1,1.5384002E0,3.906406E-1,9.8562336E-1,1.3943918E-1],"categories":[],"categories_nodes":[],"categories_segments":[],"categories_sizes":[],"default_left":[true,true,true,true,false,true,true,false,true,true,true,true,true,true,false,true,true,true,false,true,true,true,true,true,false,false,true,false,true,false,false,true,false,false,true,false,true,true,true,false,false,true,true,true,true,false,true,true,true,true,true,true,true,true,true,false,false,false,false,false,false,false,false,false,false,true,true,false,false,false,false],"id":24,"left_children":[1,3,5,7,-1,9,11,-1,13,15,17,19,21,23,-1,25,27,29,-1,31,33,35,37,39,-1,-1,41,-1,-1,-1,-1,45,-1,-1,47,-1,-1,-1,53,-1,-1,55,57,-1,-1,-1,59,61,63,-1,-1,-1,-1,67,69,-1,-1,-1,-1,-1,-1,-1,-1,-1,-1,-1,-1,-1,-1,-1,-1],"loss_changes":[4.3711743E2,1.8224243E2,1.2602649E2,3.233838E1,0E0,1.6190564E2,5.3158936E1,0E0,2.2628418E1,1.44453125E1,1.4313965E1,2.1398743E1,1.2270412E1,1.2334961E1,0E0,1.6983582E1,1.5190501E0,1.5785461E1,0E0,2.7552567E0,3.1513E1,1.8350854E0,6.6402054E0,1.3380249E1,0E0,0E0,7.1729126E0,0E0,7.867038E-3,0E0,0E0,1.2060242E0,0E0,0E0,1.1562592E1,0E0,1.34292E-1,1.759491E-1,3.080742E0,0E0,0E0,2.458191E0,7.6908875E-1,0E0,0E0,0E0,4.910431E-1,2.1434189E1,6.8540344E0,0E0,0E0,0E0,1.6097641E-1,1.283001E0,1.8243272E0,0E0,0E0,0E0,0E0,0E0,0E0,0E0,0E0,0E0,0E0,0E0,0E0,0E0,0E0,0E0,0E0],"parents":[2147483647,0,0,1,1,2,2,3,3,5,5,6,6,8,8,9,9,10,10,11,11,12,12,13,13,15,15,16,16,17,17,19,19,20,20,21,21,22,22,23,23,26,26,28,28,31,31,34,34,36,36,37,37,38,38,41,41,42,42,46,46,47,47,48,48,52,52,53,53,54,54],"right_children":[2,4,6,8,-1,10,12,-1,14,16,18,20,22,24,-1,26,28,30,-1,32,34,36,38,40,-1,-1,42,-1,-1,-1,-1,46,-1,-1,48,-1,-1,-1,54,-1,-1,56,58,-1,-1,-1,60,62,64,-1,-1,-1,-1,68,70,-1,-1,-1,-1,-1,-1,-1,-1,-1,-1,-1,-1,-1,-1,-1,-1],"split_conditions":[-9.0479994E-1,3.7489754E-1,-3.085664E-1,-7.729628E-2,9.1331625E-1,7.606275E-1,1.1024956E0,1.20195E-1,-4.630183E-2,3.8484842E-1,1.8779144E0,-4.9853697E-1,1.304387E0,4.6156192E-1,3.3938218E-2,-8.910016E-1,6.3533306E-2,2.4465692E-1,1.692903E-1,1.0109906E0,-3.6552662E-1,1.1874642E0,3.1990162E-1,3.3262968E-1,1.9391114E-1,-2.2922592E-2,2.9629156E-1,1.3143158E-1,2.4826659E-2,8.311355E-1,1.8840072E-1,-2.0150292E-1,3.0661772E-3,3.9004055E-1,-2.7034968E-1,3.1977665E-2,-5.1827297E-2,1.7103158E-1,2.0153646E0,4.8548597E-1,8.266197E-2,-1.2079254E0,-4.3573177E-1,2.9940566E-2,7.299423E-3,4.7064666E-2,3.8135064E-1,2.0109246E0,-2.7588612E-1,-1.142025E-2,-6.1489563E-2,4.8996467E-2,1.7914699E-1,1.1462533E0,1.3148372E0,1.1979645E-1,3.1932265E-1,1.6034599E-1,2.5787172E-1,1.5430827E-1,5.808952E-2,3.2012847E-1,1.1421235E-1,2.3240712E-2,1.8740228E-1,1.8857938E-1,5.184395E-2,1.2307201E-1,3.1251248E-2,7.884987E-2,1.1155134E-2],"split_indices":[12,4,12,11,0,4,12,0,4,9,4,4,12,10,0,12,11,11,0,12,4,12,10,9,0,0,10,0,4,0,0,11,0,0,10,0,4,11,12,0,0,4,9,2147483647,2147483647,0,12,4,12,2147483647,2147483647,2147483647,2147483647,10,4,0,0,0,0,0,0,0,0,0,0,2147483647,2147483647,0,0,0,0],"split_type":[0,0,0,0,0,0,0,0,0,0,0,0,0,0,0,0,0,0,0,0,0,0,0,0,0,0,0,0,0,0,0,0,0,0,0,0,0,0,0,0,0,0,0,0,0,0,0,0,0,0,0,0,0,0,0,0,0,0,0,0,0,0,0,0,0,0,0,0,0,0,0],"sum_hessian":[2.55E2,4.4E1,2.11E2,3.8E1,6E0,7.4E1,1.37E2,3E0,3.5E1,6.8E1,6E0,1.02E2,3.5E1,3.4E1,1E0,6.4E1,4E0,5E0,1E0,2.4E1,7.8E1,5E0,3E1,3.1E1,3E0,1E0,6.3E1,2E0,2E0,4E0,1E0,2.3E1,1E0,8E0,7E1,2E0,3E0,9E0,2.1E1,3E1,1E0,4.4E1,1.9E1,1E0,1E0,2E0,2.1E1,2.1E1,4.9E1,1E0,2E0,1E0,8E0,1.1E1,1E1,2E0,4.2E1,1E1,9E0,1.9E1,2E0,1.5E1,6E0,2E0,4.7E1,7E0,1E0,9E0,2E0,4E0,6E0],"tree_param":{"num_deleted":"8","num_feature":"13","num_nodes":"71","size_leaf_vector":"0"}},{"base_weights":[3.3898659E0,3.0283358E0,7.700578E0,3.5547001E0,1.8677517E0,8.083463E0,5.957689E-1,9.6610155E0,3.3259332E0,3.3186834E0,1.522254E0,2.606119E0,3.5841208E0,1.616915E0,4.008193E-1,3.066053E0,1.8637787E0,3.8448458E0,2.7867653E0,1.6787677E0,-1.4787038E-2,1.0351503E0,-5.785618E-1,3.1895692E0,5.0829887E-2,6.3575935E-1,2.0542974E0,4.3695097E0,3.1113622E0,2.9723806E0,8.3716965E-1,2.6698618E0,1.4432429E0,-1.1683941E-1,9.465885E-2,-7.328372E-1,-1.3500547E-1,3.350474E0,1.5474257E0,7.9772663E-1,2.2829118E0,3.9583168E0,7.3890634E0,3.3659532E0,1.2774149E0,1.5768623E-1,3.0745733E0,9.010906E-1,3.4040654E0,1.5435506E0,7.8637624E-1],"categories":[],"categories_nodes":[],"categories_segments":[],"categories_sizes":[],"default_left":[true,true,true,true,true,false,false,false,true,false,true,true,true,true,true,true,true,true,true,true,true,false,true,true,false,false,true,true,true,true,false,true,true,true,true,true,true,false,false,false,false,false,false,false,false,false,false,false,false,false,false],"id":25,"left_children":[1,3,5,7,9,-1,-1,-1,11,-1,13,15,17,19,21,23,25,27,29,31,-1,-1,-1,37,-1,-1,39,41,43,45,-1,47,49,-1,-1,-1,-1,-1,-1,-1,-1,-1,-1,-1,-1,-1,-1,-1,-1,-1,-1],"loss_changes":[3.5226685E2,1.302002E2,4.4149902E1,1.8159729E2,3.104126E1,0E0,0E0,0E0,1.8350586E1,0E0,5.721298E0,8.966949E0,1.1529541E1,5.575699E0,4.3264084E0,9.148621E0,3.1392136E0,1.6421753E1,8.367859E0,8.518372E0,4.456752E-2,0E0,1.0635257E-1,1.1568909E0,0E0,0E0,2.775177E0,2.4141418E1,1.2508911E1,7.281494E0,0E0,8.620377E0,1.7511749E0,0E0,0E0,0E0,0E0,0E0,0E0,0E0,0E0,0E0,0E0,0E0,0E0,0E0,0E0,0E0,0E0,0E0,0E0],"parents":[2147483647,0,0,1,1,2,2,3,3,4,4,8,8,10,10,11,11,12,12,13,13,14,14,15,15,16,16,17,17,18,18,19,19,20,20,22,22,23,23,26,26,27,27,28,28,29,29,31,31,32,32],"right_children":[2,4,6,8,10,-1,-1,-1,12,-1,14,16,18,20,22,24,26,28,30,32,-1,-1,-1,38,-1,-1,40,42,44,46,-1,48,50,-1,-1,-1,-1,-1,-1,-1,-1,-1,-1,-1,-1,-1,-1,-1,-1,-1,-1],"split_conditions":[1.5843346E0,3.4794414E-1,1.332572E0,-1.1806202E0,7.098133E-1,6.46677E-1,4.7661513E-2,7.728812E-1,-3.0891207E-1,2.6549467E-1,2.7001982E0,2.3657633E-1,9.794941E-1,9.504404E-1,-1.871084E0,2.3257158E0,-8.159572E-1,-3.87695E-1,-1.1329971E-1,-1.0832405E-2,-1.182963E-3,8.281202E-2,-4.628494E-2,-3.8611645E-1,4.066391E-3,5.0860748E-2,5.1305556E-1,-4.6306753E-1,8.9714587E-1,1.0341673E0,6.697357E-2,9.26422E-1,-8.009077E-1,-9.347153E-3,7.572708E-3,-5.8626976E-2,-1.0800438E-2,2.6803792E-1,1.2379406E-1,6.381813E-2,1.8263294E-1,3.1666535E-1,5.911251E-1,2.6927626E-1,1.0219319E-1,1.2614898E-2,2.4596585E-1,7.208725E-2,2.7232522E-1,1.23484045E-1,6.2910095E-2],"split_indices":[5,12,4,7,6,0,0,0,5,0,12,7,7,7,5,4,5,4,6,4,1,0,4,5,0,0,7,4,5,7,0,6,7,2147483647,2147483647,2147483647,2147483647,0,0,0,0,0,0,0,0,0,0,0,0,0,0],"split_type":[0,0,0,0,0,0,0,0,0,0,0,0,0,0,0,0,0,0,0,0,0,0,0,0,0,0,0,0,0,0,0,0,0,0,0,0,0,0,0,0,0,0,0,0,0,0,0,0,0,0,0],"sum_hessian":[2.4E2,2.23E2,1.7E1,1.52E2,7.1E1,1.6E1,1E0,4E0,1.48E2,1.2E1,5.9E1,4.2E1,1.06E2,5.4E1,5E0,2.4E1,1.8E1,7.7E1,2.9E1,5.2E1,2E0,3E0,2E0,2.3E1,1E0,3E0,1.5E1,4.2E1,3.5E1,2.6E1,3E0,8E0,4.4E1,1E0,1E0,1E0,1E0,2E1,3E0,3E0,1.2E1,3.9E1,3E0,3E1,5E0,1E0,2.5E1,3E0,5E0,3.7E1,7E0],"tree_param":{"num_deleted":"4","num_feature":"13","num_nodes":"51","size_leaf_vector":"0"}},{"base_weights":[3.0806181E0,2.4041674E0,5.114998E0,5.6924553E0,2.300048E0,4.12895E0,6.749613E0,8.524865E0,9.6256E-1,2.6790833E0,1.491009E0,4.2020936E0,6.3817453E-1,7.0298996E0,5.719385E-1,2.9400918E0,1.7806544E0,1.7830881E0,5.763483E-1,4.382514E0,2.4793637E0,2.7536266E0,7.3520617E0,2.238766E0,3.4737568E0,6.776974E-1,2.0868719E0,3.8029406E0,1.5482668E0,6.799698E-2,1.4122677E0,2.8706985E0,4.6681437E0,-9.470558E-2,2.3549037E0,4.1926236E0,2.733523E0,1.2715721E-1,9.825901E-1,2.0865917E-1,2.1627607E0,1.107712E0,1.9774914E0,4.7444358E-1,-5.1462764E-1,2.5895834E-1,1.5911379E0,3.7335958E0,1.8800418E-1,4.897849E0,2.1228766E0,4.8796654E-2,-1.9085503E-1,2.481108E0,5.672369E-1,9.147763E-1,4.6173267E0,5.397568E-1,2.881514E0,4.2637062E-1,-1.1470413E-1,-8.840418E-2,1.1660993E0,1.915803E-1,2.0614035E0,7.900824E-1,-7.096946E-1,2.0446062E-1,-7.4551487E-1,6.081743E-1,-3.2616806E-1,2.729583E0,1.5137863E-1],"categories":[],"categories_nodes":[],"categories_segments":[],"categories_sizes":[],"default_left":[true,true,true,true,true,true,true,false,false,true,true,true,false,true,false,true,true,true,true,true,false,false,false,true,true,true,true,false,true,true,true,true,true,true,true,true,true,true,false,false,false,true,true,true,true,false,false,false,true,false,true,true,true,false,false,false,false,false,false,false,false,false,false,false,false,false,false,false,false,false,false,false,false],"id":26,"left_children":[1,3,5,7,9,11,13,-1,-1,15,17,19,-1,21,-1,23,25,27,29,31,-1,-1,-1,33,35,37,39,-1,41,43,45,47,49,-1,53,55,57,59,-1,-1,-1,61,63,65,67,-1,-1,-1,69,-1,71,-1,-1,-1,-1,-1,-1,-1,-1,-1,-1,-1,-1,-1,-1,-1,-1,-1,-1,-1,-1,-1,-1],"loss_changes":[3.2348535E2,5.0246338E1,6.883972E1,5.8779327E1,5.150995E1,7.531433E0,3.2341248E1,0E0,0E0,2.3373352E1,1.5001526E1,1.2559814E0,0E0,7.3082275E0,0E0,2.7030457E1,8.718071E0,1.5455734E1,6.7030215E0,1.2810059E0,0E0,0E0,0E0,1.187619E1,1.567804E1,1.217902E0,2.8270264E0,0E0,5.751587E0,2.8490255E0,8.257179E-1,1.7817184E1,5.3883057E0,5.0706066E-2,7.842697E0,2.918686E1,7.5351105E0,3.3837909E-1,0E0,0E0,0E0,1.7093601E0,2.6022644E0,3.1770368E0,9.8256993E-1,0E0,0E0,0E0,8.464865E-1,0E0,4.3712826E0,0E0,0E0,0E0,0E0,0E0,0E0,0E0,0E0,0E0,0E0,0E0,0E0,0E0,0E0,0E0,0E0,0E0,0E0,0E0,0E0,0E0,0E0],"parents":[2147483647,0,0,1,1,2,2,3,3,4,4,5,5,6,6,9,9,10,10,11,11,13,13,15,15,16,16,17,17,18,18,19,19,23,23,24,24,25,25,26,26,28,28,29,29,30,30,31,31,32,32,33,33,34,34,35,35,36,36,37,37,41,41,42,42,43,43,44,44,48,48,50,50],"right_children":[2,4,6,8,10,12,14,-1,-1,16,18,20,-1,22,-1,24,26,28,30,32,-1,-1,-1,34,36,38,40,-1,42,44,46,48,50,-1,54,56,58,60,-1,-1,-1,62,64,66,68,-1,-1,-1,70,-1,72,-1,-1,-1,-1,-1,-1,-1,-1,-1,-1,-1,-1,-1,-1,-1,-1,-1,-1,-1,-1,-1,-1],"split_conditions":[5.2573013E-1,-1.2821363E0,1.5843346E0,1.0780637E0,6.976624E-1,8.0086577E-1,8.614139E-2,6.819892E-1,7.70048E-2,8.8530433E-1,4.8526666E-1,1.5305065E0,5.105396E-2,-6.650091E-1,4.575508E-2,-3.4786204E-1,-9.0782106E-1,-1.0719141E0,8.823851E-2,-6.650091E-1,1.9834909E-1,2.2029012E-1,5.881649E-1,-1.6679878E0,-1.522994E-1,8.349384E-1,-9.738437E-1,3.0423525E-1,-2.5952905E-1,-7.902224E-1,7.990298E-1,-2.9837662E-1,9.434575E-1,-7.5764465E-3,-3.8611645E-1,-2.9841375E-1,-2.8613794E-1,-4.0906912E-1,7.86072E-2,1.6692733E-2,1.7302085E-1,-1.1036704E0,-1.1440341E0,4.175054E0,-1.2173893E0,2.0716667E-2,1.2729102E-1,2.9868767E-1,-2.9766682E-1,3.918279E-1,-2.9246974E-1,3.9037322E-3,-1.5268402E-2,1.9848864E-1,4.537895E-2,7.3182106E-2,3.6938614E-1,4.318054E-2,2.3052113E-1,3.410965E-2,-9.176331E-3,-7.072334E-3,9.3287945E-2,1.5326424E-2,1.6491228E-1,6.320659E-2,-5.677557E-2,1.635685E-2,-5.964119E-2,4.8653945E-2,-2.6093444E-2,2.1836664E-1,1.211029E-2],"split_indices":[5,7,5,0,10,0,0,0,0,7,0,7,0,8,0,5,10,5,5,8,0,0,0,5,10,1,5,0,5,5,0,0,7,0,5,0,7,5,0,0,0,7,7,0,7,0,0,0,0,0,0,2147483647,2147483647,0,0,0,0,0,0,0,0,0,0,0,0,0,0,0,0,0,0,0,0],"split_type":[0,0,0,0,0,0,0,0,0,0,0,0,0,0,0,0,0,0,0,0,0,0,0,0,0,0,0,0,0,0,0,0,0,0,0,0,0,0,0,0,0,0,0,0,0,0,0,0,0,0,0,0,0,0,0,0,0,0,0,0,0,0,0,0,0,0,0,0,0,0,0,0,0],"sum_hessian":[2.43E2,1.84E2,5.9E1,4E0,1.8E2,3.9E1,2E1,2E0,2E0,1.21E2,5.9E1,3.8E1,1E0,1.9E1,1E0,9.2E1,2.9E1,4.4E1,1.5E1,3.3E1,5E0,2E0,1.7E1,4.2E1,5E1,7E0,2.2E1,3E0,4.1E1,1E1,5E0,7E0,2.6E1,2E0,4E1,2.3E1,2.7E1,3E0,4E0,1E0,2.1E1,2.2E1,1.9E1,6E0,4E0,1E0,4E0,5E0,2E0,2.3E1,3E0,1E0,1E0,3.7E1,3E0,3E0,2E1,2E0,2.5E1,1E0,2E0,1E0,2.1E1,1E0,1.8E1,5E0,1E0,1E0,3E0,1E0,1E0,2E0,1E0],"tree_param":{"num_deleted":"2","num_feature":"13","num_nodes":"73","size_leaf_vector":"0"}},{"base_weights":[2.8485281E0,2.3817754E0,5.635133E0,8.795025E0,2.1977155E0,4.7718954E0,8.653021E0,6.836972E-1,1.0280551E1,2.638235E0,1.6817249E0,4.963612E0,-4.898033E-1,3.4100642E0,2.2289906E0,1.3575473E0,2.0111692E0,5.1966724E0,1.1338463E0,3.8991592E0,1.9846706E0,1.4301733E0,2.454357E0,4.5539317E-1,1.5932395E0,5.8400536E-1,2.1567652E0,2.4486828E0,5.6875973E0,3.9806602E0,8.493185E-1,2.0031261E-1,1.4843601E0,2.6421525E0,1.5577155E0,4.9699914E-1,-2.1939278E-2,2.4067938E0,1.2129443E0,-3.131218E-1,8.2605517E-1,1.1866469E0,2.4357257E0,2.7048805E0,5.8384705E-1,6.380487E0,3.590868E0,2.002808E0,4.144441E0,1.5263915E0,3.6389732E-1,2.7339401E0,9.260559E-1,1.9597168E0,-4.355278E-1,2.5268206E-1,6.9920254E-1,-1.4346623E-1,2.6312711E0,2.2575743E0,7.706687E-1,1.9169334E0,5.81887E-1,2.5163028E0,-1.1166E-1,2.9962077E0,7.697859E-1,6.5925016E0,1.600132E0,4.479267E0,1.5826521E0],"categories":[],"categories_nodes":[],"categories_segments":[],"categories_sizes":[],"default_left":[true,true,true,true,true,true,false,false,false,true,true,true,false,true,true,true,true,true,false,true,false,true,true,true,true,true,true,true,true,true,false,false,true,true,true,true,false,true,true,false,false,true,true,true,false,true,true,false,false,false,false,false,false,false,false,false,false,false,false,false,false,false,false,false,false,false,false,false,false,false,false],"id":27,"left_children":[1,3,5,7,9,11,-1,-1,-1,13,15,17,-1,19,21,23,25,27,-1,29,-1,31,33,35,37,39,41,43,45,47,-1,-1,49,51,53,55,-1,57,59,-1,-1,61,63,65,-1,67,69,-1,-1,-1,-1,-1,-1,-1,-1,-1,-1,-1,-1,-1,-1,-1,-1,-1,-1,-1,-1,-1,-1,-1,-1],"loss_changes":[3.2865088E2,2.4862671E2,5.5099365E1,6.526877E1,4.602466E1,3.3702576E1,0E0,0E0,0E0,2.9671265E1,8.483612E0,2.0884766E1,0E0,1.9450409E1,1.0891937E1,1.118177E1,9.129898E0,2.3846375E1,0E0,3.578949E0,0E0,1.0355072E0,6.155792E0,2.690823E-1,1.0693893E1,1.5615523E0,9.28775E0,1.287365E0,1.0502991E1,4.4573975E-1,0E0,0E0,3.3934784E-1,5.186554E0,1.1270233E1,4.1614485E-1,0E0,7.8196793E0,1.3044617E1,0E0,0E0,4.1843376E0,7.259842E0,5.1229095E-1,0E0,5.6672363E0,7.183655E0,0E0,0E0,0E0,0E0,0E0,0E0,0E0,0E0,0E0,0E0,0E0,0E0,0E0,0E0,0E0,0E0,0E0,0E0,0E0,0E0,0E0,0E0,0E0,0E0],"parents":[2147483647,0,0,1,1,2,2,3,3,4,4,5,5,9,9,10,10,11,11,13,13,14,14,15,15,16,16,17,17,19,19,21,21,22,22,23,23,24,24,25,25,26,26,27,27,28,28,29,29,32,32,33,33,34,34,35,35,37,37,38,38,41,41,42,42,43,43,45,45,46,46],"right_children":[2,4,6,8,10,12,-1,-1,-1,14,16,18,-1,20,22,24,26,28,-1,30,-1,32,34,36,38,40,42,44,46,48,-1,-1,50,52,54,56,-1,58,60,-1,-1,62,64,66,-1,68,70,-1,-1,-1,-1,-1,-1,-1,-1,-1,-1,-1,-1,-1,-1,-1,-1,-1,-1,-1,-1,-1,-1,-1,-1],"split_conditions":[9.9730295E-1,-1.2735965E0,7.687309E-1,-1.8919501E0,3.4417784E-1,7.063476E-1,6.9224167E-1,5.4695778E-2,8.224441E-1,1.15942925E-1,-3.4647095E-1,-4.6887693E-1,-3.9184265E-2,-1.527101E-1,-4.2645752E-1,8.241826E-1,-3.0345514E-1,1.1732733E0,9.07077E-2,6.393904E-1,1.5877365E-1,-9.738437E-1,-6.49282E-1,-3.7916112E-1,9.92271E-1,-7.7251184E-1,-1.0112664E0,-9.9188805E-1,2.2980845E-1,-4.7000718E-1,6.794548E-2,1.6025009E-2,-4.5080125E-1,-1.2716267E-1,2.2247681E-1,-5.7738864E-1,-1.7551421E-3,-1.1463006E0,-1.2096301E0,-2.5049742E-2,6.6084415E-2,-1.8858448E-1,9.2031074E-1,1.1447564E0,4.6707764E-2,7.784115E-2,-3.853417E-1,1.6022465E-1,3.3155528E-1,1.2211132E-1,2.9111786E-2,2.187152E-1,7.408447E-2,1.5677734E-1,-3.4842223E-2,2.0214565E-2,5.5936202E-2,-1.1477298E-2,2.1050169E-1,1.8060595E-1,6.1653495E-2,1.5335467E-1,4.655096E-2,2.0130423E-1,-8.9328E-3,2.396966E-1,6.158287E-2,5.2740014E-1,1.2801056E-1,3.5834137E-1,1.2661217E-1],"split_indices":[5,7,6,5,6,6,0,0,0,7,5,2,0,4,5,6,4,5,0,2,0,5,4,5,6,2,7,2,6,7,0,0,5,6,5,5,0,7,5,0,0,5,7,5,0,4,7,0,0,0,0,0,0,0,0,0,0,0,0,0,0,0,0,0,0,0,0,0,0,0,0],"split_type":[0,0,0,0,0,0,0,0,0,0,0,0,0,0,0,0,0,0,0,0,0,0,0,0,0,0,0,0,0,0,0,0,0,0,0,0,0,0,0,0,0,0,0,0,0,0,0,0,0,0,0,0,0,0,0,0,0,0,0,0,0,0,0,0,0,0,0,0,0,0,0],"sum_hessian":[2.62E2,2.26E2,3.6E1,5E0,2.21E2,3E1,6E0,1E0,4E0,1.17E2,1.04E2,2.9E1,1E0,3.8E1,7.9E1,5.5E1,4.9E1,2.7E1,2E0,2.7E1,1.1E1,1.9E1,6E1,1.2E1,4.3E1,5E0,4.4E1,5E0,2.2E1,2.6E1,1E0,1E0,1.8E1,4.8E1,1.2E1,1.1E1,1E0,1.2E1,3.1E1,1E0,4E0,1.1E1,3.3E1,4E0,1E0,1.5E1,7E0,3E0,2.3E1,1.7E1,1E0,4.5E1,3E0,1E1,2E0,6E0,5E0,1E0,1.1E1,8E0,2.3E1,4E0,7E0,3.2E1,1E0,3E0,1E0,1.4E1,1E0,4E0,3E0],"tree_param":{"num_deleted":"0","num_feature":"13","num_nodes":"71","size_leaf_vector":"0"}},{"base_weights":[2.6326027E0,4.8823714E0,2.0883875E0,4.0514116E0,8.933231E0,2.7612681E0,1.6979903E0,9.0050554E-1,4.2825522E0,6.8069286E0,2.2037036E0,1.0925425E0,1.9374176E0,1.0292486E0,2.5713825E-1,4.4276347E0,-4.7021103E-1,1.5140657E0,7.346757E0,2.5430436E0,1.5463161E0,2.9470086E0,8.49388E-1,8.926409E-1,2.1897182E0,1.931068E0,4.5960784E0,4.1627407E0,2.192723E0,1.6643865E0,-5.84651E-1,-9.789133E-2,9.097653E-1,5.547633E-1,1.2878771E0,3.649185E0,1.8906387E0,1.3006668E0,4.658414E0,2.3101332E0,7.052603E-1,-3.005972E-1,1.7673675E0,-9.109497E-3,-1.377275E-1,1.1377453E0,4.7150803E-1,6.663725E-1,-2.1883647E-3,3.9925647E0,1.4026502E0,1.7164179E0,3.2015927E0,4.7230372E0,1.327548E0,1.2096119E-1,2.3768497E0,1.0693264E-1,8.690586E-1,2.0923057E0,9.371872E-1,1.5837122E0,6.7129403E-1,1.15535855E-1,8.6755294E-1,3.596592E-2,7.3242146E-1,-2.1061897E-2,1.777935E-2,4.2256117E0,1.0640936E0,1.305245E0,2.4484258E0,3.6905155E0,3.7848902E-1],"categories":[],"categories_nodes":[],"categories_segments":[],"categories_sizes":[],"default_left":[true,true,true,true,false,true,true,true,true,true,true,true,true,true,true,true,false,false,false,true,true,false,true,true,true,false,true,false,true,true,false,true,true,true,false,true,true,false,true,true,true,false,true,true,true,true,true,true,true,true,false,true,true,false,false,false,false,true,true,false,false,false,false,false,false,false,false,true,true,false,false,false,false,false,false],"id":28,"left_children":[1,3,5,7,-1,9,11,-1,15,17,19,21,23,-1,-1,25,-1,-1,-1,27,29,-1,31,33,35,-1,37,-1,39,41,-1,-1,45,47,-1,49,51,-1,53,55,-1,-1,59,-1,-1,61,63,65,-1,69,-1,71,73,-1,-1,-1,-1,-1,-1,-1,-1,-1,-1,-1,-1,-1,-1,-1,-1,-1,-1,-1,-1,-1,-1],"loss_changes":[2.8364966E2,1.1864856E2,4.6536133E1,2.5275696E1,0E0,1.4289966E2,1.6148346E1,6.665683E-2,2.7595032E1,1.17344055E1,1.01215515E1,1.4631874E1,2.1505585E1,0E0,0E0,6.263733E0,0E0,0E0,0E0,1.3568817E1,7.0115814E0,0E0,2.0908527E0,1.8228207E0,2.409198E1,0E0,7.1990967E-1,0E0,4.483261E0,5.1854553E0,0E0,9.355554E-3,2.7607021E0,7.473893E-1,0E0,2.8853912E0,8.436844E0,0E0,6.1798096E-1,4.386215E0,2.9908943E-1,0E0,3.9737778E0,0E0,0E0,3.3053226E0,1.7325187E0,3.9003468E-1,1.5050508E-3,1.6457977E0,0E0,1.365918E1,6.884861E0,0E0,0E0,0E0,0E0,0E0,0E0,0E0,0E0,0E0,0E0,0E0,0E0,0E0,0E0,0E0,0E0,0E0,0E0,0E0,0E0,0E0,0E0],"parents":[2147483647,0,0,1,1,2,2,3,3,5,5,6,6,7,7,8,8,9,9,10,10,11,11,12,12,15,15,19,19,20,20,22,22,23,23,24,24,26,26,28,28,29,29,31,31,32,32,33,33,35,35,36,36,38,38,39,39,40,40,42,42,45,45,46,46,47,47,48,48,49,49,51,51,52,52],"right_children":[2,4,6,8,-1,10,12,-1,16,18,20,22,24,-1,-1,26,-1,-1,-1,28,30,-1,32,34,36,-1,38,-1,40,42,-1,-1,46,48,-1,50,52,-1,54,56,-1,-1,60,-1,-1,62,64,66,-1,70,-1,72,74,-1,-1,-1,-1,-1,-1,-1,-1,-1,-1,-1,-1,-1,-1,-1,-1,-1,-1,-1,-1,-1,-1],"split_conditions":[-9.040737E-1,5.1234156E-1,-3.092926E-1,-1.0043542E-1,7.146585E-1,-6.958428E-1,-9.855553E-1,7.204044E-2,7.01149E-1,-6.888877E-1,-4.8080224E-1,4.2710304E-1,-6.537157E-1,8.233988E-2,2.057106E-2,-1.6867452E0,-3.7616882E-2,1.2112526E-1,5.8774054E-1,6.8802245E-2,5.782001E-1,2.3576069E-1,9.0736043E-1,3.756457E-1,-3.6552662E-1,1.5448543E-1,-1.302047E0,3.3301926E-1,-1.1329971E-1,-8.830131E-1,-4.6772078E-2,-7.831306E-3,-1.1291752E0,6.179712E-1,1.0303017E-1,3.951943E-1,-2.9471025E-1,1.0405334E-1,2.8723102E0,-3.1161332E-1,5.642082E-2,-2.4047775E-2,2.8751755E-1,-7.2875974E-4,-1.10182E-2,1.203681E0,-1.0804548E0,-9.10869E-1,-1.7506917E-4,-1.4066724E-1,1.1221202E-1,1.4434633E-1,1.1620922E0,3.7784296E-1,1.0620384E-1,9.676895E-3,1.9014797E-1,8.554611E-3,6.952469E-2,1.6738445E-1,7.497498E-2,1.2669697E-1,5.370352E-2,9.242868E-3,6.940424E-2,2.8772736E-3,5.8593716E-2,-1.6849517E-3,1.422348E-3,3.3804893E-1,8.512749E-2,1.04419604E-1,1.9587405E-1,2.9524124E-1,3.027912E-2],"split_indices":[12,4,12,11,0,7,7,1,6,11,4,12,4,2147483647,2147483647,6,0,0,0,7,1,0,6,11,4,0,12,0,6,12,0,4,7,6,0,11,1,0,7,11,1,0,7,2147483647,2147483647,6,7,4,1,1,0,4,6,0,0,0,0,2147483647,2147483647,0,0,0,0,0,0,0,0,2147483647,2147483647,0,0,0,0,0,0],"split_type":[0,0,0,0,0,0,0,0,0,0,0,0,0,0,0,0,0,0,0,0,0,0,0,0,0,0,0,0,0,0,0,0,0,0,0,0,0,0,0,0,0,0,0,0,0,0,0,0,0,0,0,0,0,0,0,0,0,0,0,0,0,0,0,0,0,0,0,0,0,0,0,0,0,0,0],"sum_hessian":[2.39E2,4.5E1,1.94E2,3.9E1,6E0,6.9E1,1.25E2,3E0,3.6E1,7E0,6.2E1,3.7E1,8.8E1,2E0,1E0,3.5E1,1E0,1E0,6E0,3.9E1,2.3E1,3E0,3.4E1,1.8E1,7E1,3E0,3.2E1,5E0,3.4E1,2.2E1,1E0,2E0,3.2E1,1.1E1,7E0,1E1,6E1,1E0,3.1E1,3.1E1,3E0,1E0,2.1E1,1E0,1E0,2E1,1.2E1,9E0,2E0,8E0,2E0,5.5E1,5E0,3E1,1E0,1E0,3E1,1E0,2E0,1.4E1,7E0,9E0,1.1E1,7E0,5E0,1E0,8E0,1E0,1E0,7E0,1E0,3.7E1,1.8E1,4E0,1E0],"tree_param":{"num_deleted":"8","num_feature":"13","num_nodes":"75","size_leaf_vector":"0"}},{"base_weights":[2.2989068E0,3.0789206E0,1.5852104E0,2.6494842E0,7.890055E0,1.8306261E0,7.764178E-1,3.7776258E0,2.264169E0,1.9314334E0,8.485834E-1,1.250769E0,3.8603172E-1,3.964843E0,-4.5140266E-1,1.6272194E0,2.6125963E0,-1.8915796E-1,1.9576806E0,9.2986834E-1,1.7867088E-2,2.9593372E-1,1.3852471E0,9.838588E-1,2.1244797E-1,4.1281414E0,1.3912748E0,2.0883613E0,5.570065E-1,1.6534927E0,2.956733E0,2.2576187E0,1.6606984E0,2.3785496E-1,9.8033035E-1,5.972471E-1,1.581553E0,3.9041016E-1,-6.888582E-1,4.3795094E0,1.8392649E0,9.7960997E-1,2.211869E0,7.2496015E-1,-5.61265E-1,1.8565784E0,5.80091E-1,4.0175476E0,2.3534057E0,1.6006389E0,2.6140602E0,1.531336E0,3.870366E0,7.3146725E-1,9.729338E-2,6.691564E-1,1.746644E0,-4.1196403E-1,7.525562E-1,1.0669746E0,4.497697E0,2.9379272E-1,1.1102848E0,1.5741873E-1,9.457038E-1,1.6600418E-1,9.111757E-1,1.9163642E0,4.505013E0,4.2024612E-1,2.5872855E0,2.2401156E0,3.6708423E-1,4.17114E0,1.902817E0,2.3351934E0,1.1890079E0,1.8632193E0,5.235963E-1,1.862243E-1,-8.7283105E-1,9.893891E-1,1.4995956E-1],"categories":[],"categories_nodes":[],"categories_segments":[],"categories_sizes":[],"default_left":[true,true,true,true,false,true,true,true,true,true,true,true,true,true,false,true,true,false,true,true,false,false,true,false,true,true,false,true,true,true,true,true,true,true,true,true,true,true,false,true,false,true,false,true,false,false,true,true,true,true,true,true,false,true,true,true,true,true,true,false,false,true,true,false,false,false,false,false,false,false,false,false,false,false,false,false,false,true,true,false,false,false,false],"id":29,"left_children":[1,3,5,7,-1,9,11,13,15,17,19,21,23,25,-1,27,29,-1,31,-1,-1,-1,35,-1,37,39,-1,41,43,45,47,49,51,-1,-1,-1,-1,57,-1,59,-1,-1,-1,63,-1,-1,65,67,69,71,73,75,-1,-1,-1,-1,-1,79,81,-1,-1,-1,-1,-1,-1,-1,-1,-1,-1,-1,-1,-1,-1,-1,-1,-1,-1,-1,-1,-1,-1,-1,-1],"loss_changes":[1.3150903E2,2.1876038E2,2.4382416E1,3.839337E1,0E0,8.161713E0,5.4429264E0,2.2375153E1,1.4169006E1,5.324005E0,7.2615767E-1,1.3877201E0,1.7626696E0,4.7631226E0,0E0,1.462941E1,1.22743225E1,0E0,4.0894775E0,1.1602688E-1,0E0,0E0,9.1168976E-1,0E0,2.8353117E0,5.1779785E0,0E0,8.4589386E-1,2.4728904E0,2.4108963E0,1.4225739E1,5.4170074E0,7.793869E0,0E0,0E0,1.9724858E-1,1.8688011E-1,4.3780994E0,0E0,3.031067E0,0E0,3.228283E-2,0E0,1.10394E0,0E0,0E0,3.9713228E-1,3.6578064E0,1.0667984E1,1.2587788E1,1.974965E1,1.0157036E1,0E0,0E0,0E0,0E0,2.2462845E-2,1.5409687E0,1.278779E0,0E0,0E0,0E0,0E0,0E0,0E0,0E0,0E0,0E0,0E0,0E0,0E0,0E0,0E0,0E0,0E0,0E0,0E0,0E0,0E0,0E0,0E0,0E0,0E0],"parents":[2147483647,0,0,1,1,2,2,3,3,5,5,6,6,7,7,8,8,9,9,10,10,11,11,12,12,13,13,15,15,16,16,18,18,19,19,22,22,24,24,25,25,27,27,28,28,29,29,30,30,31,31,32,32,35,35,36,36,37,37,39,39,41,41,43,43,46,46,47,47,48,48,49,49,50,50,51,51,56,56,57,57,58,58],"right_children":[2,4,6,8,-1,10,12,14,16,18,20,22,24,26,-1,28,30,-1,32,-1,-1,-1,36,-1,38,40,-1,42,44,46,48,50,52,-1,-1,-1,-1,58,-1,60,-1,-1,-1,64,-1,-1,66,68,70,72,74,76,-1,-1,-1,-1,-1,80,82,-1,-1,-1,-1,-1,-1,-1,-1,-1,-1,-1,-1,-1,-1,-1,-1,-1,-1,-1,-1,-1,-1,-1,-1],"split_conditions":[-3.1001887E-1,8.3977854E-1,1.1024956E0,-1.044962E0,6.312044E-1,2.9065317E-1,4.0640563E-1,6.1970407E-1,-2.9787248E-1,-7.185666E0,7.548679E-1,-2.1308284E0,1.1725867E-1,3.2482786E0,-3.611221E-2,-9.0348816E-1,-1.2310005E0,-1.5132637E-2,2.890734E-1,7.4389465E-2,1.429367E-3,2.3674697E-2,-2.578882E-1,7.87087E-2,3.2540455E0,2.540686E-1,1.1130198E-1,-1.20128185E-1,1.656501E0,1.2970674E0,-8.047146E-1,2.0415089E-1,1.0611005E0,1.9028395E-2,7.842643E-2,4.777977E-2,1.2652424E-1,1.3116493E0,-5.5108655E-2,-1.3376322E0,1.4714119E-1,7.83688E-2,1.7694952E-1,3.8016716E-1,-4.49012E-2,1.4852627E-1,-2.9271036E-1,-1.1460899E0,-9.236819E-1,4.8738E-2,3.5956377E-1,-1.5142284E-1,3.096293E-1,5.8517378E-2,7.78347E-3,5.3532507E-2,1.3973151E-1,1.1412978E0,1.9536352E0,8.535797E-2,3.5981575E-1,2.3503417E-2,8.882278E-2,1.25934975E-2,7.56563E-2,1.3280334E-2,7.289406E-2,1.5330914E-1,3.6040103E-1,3.361969E-2,2.0698284E-1,1.7920925E-1,2.9366737E-2,3.336912E-1,1.5222536E-1,1.8681547E-1,9.512063E-2,1.4905754E-1,4.18877E-2,1.48979435E-2,-6.9826484E-2,7.915113E-2,1.1996765E-2],"split_indices":[12,6,12,12,0,1,0,6,0,11,6,11,11,1,0,6,6,0,11,6,0,0,0,0,0,6,0,1,1,1,6,12,12,2147483647,2147483647,0,12,12,0,12,0,6,0,11,0,0,0,6,12,12,12,6,0,2147483647,2147483647,2147483647,2147483647,6,12,0,0,2147483647,2147483647,0,0,0,0,0,0,0,0,0,0,0,0,0,0,2147483647,2147483647,0,0,0,0],"split_type":[0,0,0,0,0,0,0,0,0,0,0,0,0,0,0,0,0,0,0,0,0,0,0,0,0,0,0,0,0,0,0,0,0,0,0,0,0,0,0,0,0,0,0,0,0,0,0,0,0,0,0,0,0,0,0,0,0,0,0,0,0,0,0,0,0,0,0,0,0,0,0,0,0,0,0,0,0,0,0,0,0,0,0],"sum_hessian":[2.44E2,1.15E2,1.29E2,1.07E2,8E0,9.8E1,3.1E1,2.5E1,8.2E1,8.8E1,1E1,1.3E1,1.8E1,2.4E1,1E0,3.1E1,5.1E1,1E0,8.7E1,9E0,1E0,2E0,1.1E1,3E0,1.5E1,2.2E1,2E0,2.1E1,1E1,1.5E1,3.6E1,4E1,4.7E1,1E0,8E0,3E0,8E0,1.3E1,2E0,1.9E1,3E0,3E0,1.8E1,9E0,1E0,1.2E1,3E0,1.1E1,2.5E1,1.6E1,2.4E1,4.6E1,1E0,2E0,1E0,2E0,6E0,4E0,9E0,1E0,1.8E1,1E0,2E0,3E0,6E0,2E0,1E0,3E0,8E0,3E0,2.2E1,1E1,6E0,6E0,1.8E1,1.2E1,3.4E1,5E0,1E0,2E0,2E0,6E0,3E0],"tree_param":{"num_deleted":"10","num_feature":"13","num_nodes":"83","size_leaf_vector":"0"}},{"base_weights":[2.2460546E0,3.2745552E0,1.3045882E0,2.9453816E0,9.203115E0,1.9239588E0,1.0560652E0,4.4652696E0,2.3510253E0,1.2336462E0,2.4604907E0,1.271749E0,5.456428E-1,5.4948773E0,2.4681242E0,3.8791833E0,1.9617593E0,1.4172218E0,-3.4255028E-2,3.826896E0,1.5722471E0,1.1655532E0,3.7155514E0,-4.70349E-2,7.976668E-1,5.6671185E0,1.3695097E0,2.6822598E0,1.6338348E-1,1.166102E0,4.234188E0,1.1486995E0,2.137433E0,8.4003067E-1,1.7451112E0,1.715231E-2,-6.853485E-2,4.1626368E0,1.0740957E0,3.178679E-1,1.7913363E0,1.0317156E0,2.3778887E0,-3.9715806E-1,3.1249523E-1,1.3873688E0,5.479217E-1,4.8356247E0,1.8224087E0,1.6981021E0,-6.996498E-2,2.9584303E0,1.8510638E0,2.9211426E-1,1.0007744E0,3.8341236E-1,1.8848665E0,-5.28739E-1,1.0055408E0,2.2417219E0,5.553272E-1,2.2543661E-1,1.1278039E0,2.8154373E0,3.1384706E-1,2.1325397E-1,-6.0307455E-1,8.2997483E-1,-3.091494E-1,1.8677912E0,4.444901E-1,3.9213356E-1,8.783057E-1,1.1750698E0,5.146311E0,3.074419E0,3.8026556E-1,6.454158E-1,2.116876E0,2.943236E-1,-4.1093192E-1,2.1447754E-1,3.2113779E0,1.5518351E0,2.997276E0,-6.1403275E-1,4.6768698E-1,1.6136051E0,9.574982E-1,-5.149083E-1,5.1184177E-2,4.5320213E-1,-1.3981032E-1],"categories":[],"categories_nodes":[],"categories_segments":[],"categories_sizes":[],"default_left":[true,true,true,true,false,true,true,true,true,true,true,true,true,true,true,true,true,true,true,true,true,true,false,true,true,false,false,false,false,false,true,true,true,true,true,true,true,false,false,true,true,true,true,true,true,true,true,true,true,true,true,true,true,false,false,false,false,false,false,false,false,true,true,false,false,false,false,false,true,false,false,true,false,false,false,false,false,false,false,false,false,false,false,false,false,false,false,false,false,true,true,false,false],"id":30,"left_children":[1,3,5,7,-1,9,11,13,15,17,19,21,23,25,27,29,31,33,-1,37,39,41,-1,43,45,-1,-1,-1,-1,-1,47,49,51,53,55,-1,-1,-1,-1,57,59,61,63,65,67,69,71,73,75,77,79,81,83,-1,-1,-1,-1,-1,-1,-1,-1,85,87,-1,-1,-1,-1,-1,-1,-1,-1,91,-1,-1,-1,-1,-1,-1,-1,-1,-1,-1,-1,-1,-1,-1,-1,-1,-1,-1,-1,-1,-1],"loss_changes":[2.0778552E2,1.7585193E2,1.58237915E1,7.9837585E1,0E0,8.81662E0,8.663719E0,4.1957397E1,3.6409607E1,3.7726383E0,1.4616081E1,1.0981087E1,4.0704823E0,4.3182983E0,4.99057E0,8.546692E0,6.2575684E0,1.1836224E0,6.462234E-3,1.0743027E0,2.7284412E0,6.95755E0,0E0,1.2570283E0,2.0380592E0,0E0,0E0,0E0,0E0,0E0,8.593918E0,8.822794E0,6.0440674E0,3.2417822E-1,7.997551E-1,0E0,0E0,0E0,0E0,2.2782345E0,4.3219223E0,3.9293442E0,3.631977E0,7.570776E-1,1.8650283E0,1.4346857E0,4.2763567E-1,4.188263E0,6.053216E0,2.6012726E0,7.4199873E-1,6.946068E0,8.72493E0,0E0,0E0,0E0,0E0,0E0,0E0,0E0,0E0,1.7107074E0,2.4262428E0,0E0,0E0,0E0,0E0,0E0,2.4878073E-1,0E0,0E0,4.5318282E-1,0E0,0E0,0E0,0E0,0E0,0E0,0E0,0E0,0E0,0E0,0E0,0E0,0E0,0E0,0E0,0E0,0E0,0E0,0E0,0E0,0E0],"parents":[2147483647,0,0,1,1,2,2,3,3,5,5,6,6,7,7,8,8,9,9,10,10,11,11,12,12,13,13,14,14,15,15,16,16,17,17,18,18,19,19,20,20,21,21,23,23,24,24,30,30,31,31,32,32,33,33,34,34,39,39,40,40,41,41,42,42,43,43,44,44,45,45,46,46,47,47,48,48,49,49,50,50,51,51,52,52,61,61,62,62,68,68,71,71],"right_children":[2,4,6,8,-1,10,12,14,16,18,20,22,24,26,28,30,32,34,-1,38,40,42,-1,44,46,-1,-1,-1,-1,-1,48,50,52,54,56,-1,-1,-1,-1,58,60,62,64,66,68,70,72,74,76,78,80,82,84,-1,-1,-1,-1,-1,-1,-1,-1,86,88,-1,-1,-1,-1,-1,-1,-1,-1,92,-1,-1,-1,-1,-1,-1,-1,-1,-1,-1,-1,-1,-1,-1,-1,-1,-1,-1,-1,-1,-1],"split_conditions":[-3.1001887E-1,3.696047E-1,-3.9843264E-1,-6.781759E-1,7.362492E-1,-4.9853697E-1,1.1024956E0,-1.522994E-1,-1.0195441E0,3.8135064E-1,-3.6552662E-1,1.0552907E0,1.4111426E0,3.350974E0,-5.002907E-1,-3.020477E-1,-3.0024463E-1,-8.236424E-1,-2.7404022E-3,-2.5370508E-1,-2.5627795E-1,1.5760027E-1,2.972441E-1,9.275625E-1,2.9629153E-1,4.5336947E-1,1.0956077E-1,2.1458077E-1,1.3070678E-2,9.328816E-2,1.297095E-2,-8.758429E-1,-9.0782106E-1,-9.360276E-3,-2.988158E-1,1.3721847E-3,-5.4827877E-3,3.3301094E-1,8.592766E-2,-2.9488048E-1,-2.7272037E-1,-3.7232327E-1,5.157029E-1,1.1584151E0,1.4125639E0,3.0861475E-2,3.1272206E0,-1.2562945E0,-1.1771357E0,-1.1813233E0,-1.3733897E-1,-1.1547213E0,-3.695696E-1,2.336914E-2,8.006195E-2,3.0672988E-2,1.5078932E-1,-4.2299118E-2,8.044326E-2,1.7933774E-1,4.4426173E-2,-8.634049E-3,2.3320004E-2,2.2523499E-1,2.5107764E-2,1.7060317E-2,-4.8245963E-2,6.639799E-2,-2.4731953E-2,1.4942329E-1,3.5559207E-2,2.8519797E0,7.026445E-2,9.4005585E-2,4.1170487E-1,2.4595352E-1,3.0421244E-2,5.163326E-2,1.6935007E-1,2.3545887E-2,-3.287455E-2,1.7158203E-2,2.5691023E-1,1.24146804E-1,2.3978208E-1,-4.912262E-2,3.7414957E-2,1.290884E-1,7.659985E-2,-4.1192666E-2,4.0947343E-3,3.6256168E-2,-1.1184826E-2],"split_indices":[12,0,9,9,0,4,12,10,12,12,4,12,12,1,12,0,0,9,0,0,12,0,0,0,10,0,0,0,0,0,10,4,10,12,0,2147483647,2147483647,0,0,0,0,9,12,12,0,0,12,12,12,4,9,4,12,0,0,0,0,0,0,0,0,12,12,0,0,0,0,0,0,0,0,12,0,0,0,0,0,0,0,0,0,0,0,0,0,0,0,0,0,2147483647,2147483647,0,0],"split_type":[0,0,0,0,0,0,0,0,0,0,0,0,0,0,0,0,0,0,0,0,0,0,0,0,0,0,0,0,0,0,0,0,0,0,0,0,0,0,0,0,0,0,0,0,0,0,0,0,0,0,0,0,0,0,0,0,0,0,0,0,0,0,0,0,0,0,0,0,0,0,0,0,0,0,0,0,0,0,0,0,0,0,0,0,0,0,0,0,0,0,0,0,0],"sum_hessian":[2.18E2,1.03E2,1.15E2,9.9E1,4E0,3.1E1,8.4E1,2.6E1,7.3E1,1.5E1,1.6E1,5.8E1,2.6E1,1.6E1,1E1,1.3E1,6E1,1.3E1,2E0,5E0,1.1E1,5.7E1,1E0,8E0,1.8E1,1.5E1,1E0,9E0,1E0,2E0,1.1E1,1.2E1,4.8E1,6E0,7E0,1E0,1E0,4E0,1E0,2E0,9E0,5.3E1,4E0,4E0,4E0,4E0,1.4E1,8E0,3E0,8E0,4E0,1E1,3.8E1,2E0,4E0,1E0,6E0,1E0,1E0,6E0,3E0,6E0,4.7E1,3E0,1E0,1E0,3E0,2E0,2E0,2E0,2E0,1.1E1,3E0,1E0,7E0,1E0,2E0,3E0,5E0,2E0,2E0,1E0,9E0,3.2E1,6E0,1E0,5E0,1E1,3.7E1,1E0,1E0,1E1,1E0],"tree_param":{"num_deleted":"4","num_feature":"13","num_nodes":"93","size_leaf_vector":"0"}},{"base_weights":[2.024472E0,3.3380573E0,1.8052799E0,4.3178415E0,1.8744602E0,1.8834192E0,3.7856612E-1,5.1758037E0,3.028095E0,1.9933445E0,7.3447484E-1,1.661683E0,3.652093E0,5.456283E-1,-7.295592E-1,9.592867E-1,5.5377183E0,5.4896355E-1,2.0679626E0,3.3768528E0,1.5599079E0,5.907359E0,2.3561623E0,-5.025425E-1,7.006997E-1,4.5397887E0,1.538546E0,2.2227747E0,1.3284093E0,2.7676234E0,7.5702553E0,2.2505912E-1,3.110649E0,-1.3421798E-1,8.083814E-1,9.406128E-1,5.2044296E0,1.2318636E0,2.578077E0,1.7971265E0,1.1157464E0,-2.660637E-1,6.411622E-1,4.1841564E0,1.5187001E0,8.935416E-1,6.3549995E-2,8.0046123E-1,1.7620151E0,1.0748959E0,2.7052863E0,2.4771645E0,1.061234E0,-2.4966316E-1,1.1821568E0,3.0129337E-1,-7.003889E-1,2.6390765E0,5.9547787E0,6.8170184E-1,2.8518457E0,4.789978E-1,1.1883359E0],"categories":[],"categories_nodes":[],"categories_segments":[],"categories_sizes":[],"default_left":[true,true,true,true,true,true,true,true,false,true,false,true,true,true,false,false,false,true,true,true,true,true,true,false,true,true,false,true,true,false,false,true,true,false,true,false,false,true,true,true,true,true,false,true,true,true,false,false,false,false,false,false,false,false,false,false,false,false,false,false,false,false,false],"id":31,"left_children":[1,3,5,7,9,11,13,15,-1,-1,-1,19,21,23,-1,-1,-1,-1,-1,25,27,29,31,-1,33,35,-1,37,39,-1,-1,41,43,-1,45,-1,-1,47,49,51,53,55,-1,57,59,61,-1,-1,-1,-1,-1,-1,-1,-1,-1,-1,-1,-1,-1,-1,-1,-1,-1],"loss_changes":[6.2788574E1,3.92287E1,2.236383E1,5.3516846E0,5.688324E-1,7.07984E1,2.6195784E0,9.947937E0,0E0,2.6586533E-1,0E0,2.5455261E1,4.7457336E1,2.140085E0,0E0,0E0,0E0,0E0,0E0,1.2255829E1,2.2827301E1,1.5595764E1,2.3418259E1,0E0,1.0075531E0,7.065445E0,0E0,1.1611237E1,1.0654053E1,0E0,0E0,1.1923788E0,1.2444183E1,0E0,5.140853E-1,0E0,0E0,1.562788E0,2.8286438E0,1.638768E1,8.456123E0,9.5027494E-1,0E0,6.9940186E-1,4.7509356E0,4.0843058E-1,0E0,0E0,0E0,0E0,0E0,0E0,0E0,0E0,0E0,0E0,0E0,0E0,0E0,0E0,0E0,0E0,0E0],"parents":[2147483647,0,0,1,1,2,2,3,3,4,4,5,5,6,6,7,7,9,9,11,11,12,12,13,13,19,19,20,20,21,21,22,22,24,24,25,25,27,27,28,28,31,31,32,32,34,34,37,37,38,38,39,39,40,40,41,41,43,43,44,44,45,45],"right_children":[2,4,6,8,10,12,14,16,-1,-1,-1,20,22,24,-1,-1,-1,-1,-1,26,28,30,32,-1,34,36,-1,38,40,-1,-1,42,44,-1,46,-1,-1,48,50,52,54,56,-1,58,60,62,-1,-1,-1,-1,-1,-1,-1,-1,-1,-1,-1,-1,-1,-1,-1,-1,-1],"split_conditions":[-9.6759725E-1,-7.4531424E-1,1.676682E0,-1.522994E-1,1.4613418E-1,3.44162E-1,4.204181E0,-1.2339325E0,2.422476E-1,1.5946756E-1,5.8757987E-2,-2.0411034E0,6.585807E-1,1.7346298E0,-5.8364734E-2,7.674293E-2,4.4301745E-1,4.3917082E-2,1.6543701E-1,-2.1493545E-1,-9.641386E-1,9.6454513E-1,8.669555E-1,-4.02034E-2,9.316206E-1,1.8128811E-1,1.2308367E-1,-2.978775E-1,-3.1756976E-1,2.2140987E-1,6.056204E-1,8.1307876E-1,1.0389792E0,-1.0737438E-2,3.2074661E0,7.5249024E-2,4.1635436E-1,-4.3562E-1,-8.684013E-1,7.01149E-1,-8.021162E-1,7.3950475E-1,5.1292975E-2,1.0097954E0,1.45331E0,2.2912564E0,5.0839996E-3,6.40369E-2,1.409612E-1,8.5991666E-2,2.164229E-1,1.9817315E-1,8.489872E-2,-1.9973053E-2,9.4572544E-2,2.410347E-2,-5.603111E-2,2.1112612E-1,4.763823E-1,5.4536145E-2,2.2814766E-1,3.8319822E-2,9.506687E-2],"split_indices":[2,9,0,10,9,0,0,9,0,0,0,10,0,0,0,0,0,2147483647,2147483647,0,6,6,0,0,6,6,0,0,10,0,0,0,0,0,0,0,0,10,9,6,2,0,0,0,0,0,0,0,0,0,0,0,0,0,0,0,0,0,0,0,0,0,0],"split_type":[0,0,0,0,0,0,0,0,0,0,0,0,0,0,0,0,0,0,0,0,0,0,0,0,0,0,0,0,0,0,0,0,0,0,0,0,0,0,0,0,0,0,0,0,0,0,0,0,0,0,0,0,0,0,0,0,0,0,0,0,0,0,0],"sum_hessian":[2.38E2,3.2E1,2.06E2,1.8E1,1.4E1,1.95E2,1.1E1,9E0,9E0,1.2E1,2E0,1.75E2,2E1,1E1,1E0,1E0,8E0,1E0,1.1E1,8E0,1.67E2,6E0,1.4E1,1E0,9E0,4E0,4E0,4.1E1,1.26E2,3E0,3E0,4E0,1E1,1E0,8E0,1E0,3E0,1.2E1,2.9E1,3.7E1,8.9E1,2E0,2E0,5E0,5E0,7E0,1E0,8E0,4E0,3E0,2.6E1,1.8E1,1.9E1,4E0,8.5E1,1E0,1E0,4E0,1E0,4E0,1E0,4E0,3E0],"tree_param":{"num_deleted":"2","num_feature":"13","num_nodes":"63","size_leaf_vector":"0"}},{"base_weights":[1.8517705E0,2.6786408E0,1.5022576E0,3.6929884E0,1.7968822E0,1.4067423E0,2.8244667E0,4.2545953E0,2.6269078E0,8.883787E-1,2.7063918E0,1.7157432E0,1.2453232E0,3.5358913E0,-2.5129604E-1,5.120557E0,2.8765779E0,2.8401778E0,8.981927E-1,1.3893052E0,5.028989E-1,2.815066E0,3.207903E-1,9.24231E-1,1.9151366E0,6.477517E-1,1.3974783E0,1.3125832E0,5.052021E0,9.209156E-1,5.4484296E0,7.958813E-1,3.019335E0,1.6855539E0,5.9760594E-1,6.779253E-1,-1.0414839E-1,3.301185E-1,1.2542865E0,2.2992785E0,1.3088899E0,1.4139175E-1,7.3746824E-1,2.1227133E0,1.2241286E0,1.6306248E0,2.0208359E-2,1.366334E-1,7.05719E-1,-2.4519794E-1,1.5950012E-1,-9.052467E-2,4.3235207E-1,5.3869975E-1,1.8351984E0,2.0412707E0,4.2457333E0,-3.7819004E-1,1.6488543E0,-1.9044876E-2,2.546978E-1,9.3037087E-1,3.0770516E-1,5.860348E-1,2.1860895E0,1.0125011E0,1.9412235E0,5.277068E-1,1.9287999E-1,8.0470973E-1,2.1171076E0,-6.5245247E-1,2.2229862E-1,8.561826E-1,1.9313247E0,9.640694E-3,-3.8208008E-2,-7.0204735E-2,4.5225143E-1,4.570999E-1,1.0739692E0,-3.9844513E-2,4.301958E-1,1.3120229E0,7.2767943E-1,5.2013654E-1,2.1070833E0],"categories":[],"categories_nodes":[],"categories_segments":[],"categories_sizes":[],"default_left":[true,true,true,true,true,true,true,true,true,true,true,true,true,true,false,true,true,false,false,true,true,false,false,true,true,true,true,true,false,false,false,false,false,false,true,false,true,true,true,true,true,true,true,true,true,false,false,true,true,true,true,true,true,false,false,true,false,true,true,true,true,true,true,true,true,true,true,true,true,false,false,false,false,false,false,true,true,true,true,false,false,false,false,false,false,false,false],"id":32,"left_children":[1,3,5,7,9,11,13,15,17,19,21,23,25,27,-1,29,31,-1,-1,33,35,-1,-1,37,39,41,43,45,-1,-1,-1,-1,-1,-1,-1,-1,-1,-1,53,55,57,-1,61,-1,65,-1,-1,-1,-1,-1,-1,-1,-1,-1,-1,69,-1,71,73,-1,-1,79,81,-1,-1,83,85,-1,-1,-1,-1,-1,-1,-1,-1,-1,-1,-1,-1,-1,-1,-1,-1,-1,-1,-1,-1],"loss_changes":[6.822644E1,5.8656067E1,1.85065E1,8.581299E0,3.147371E1,6.2429504E0,2.4958458E1,9.136536E0,2.610527E0,3.5494556E0,4.282013E0,6.910202E0,9.460068E0,2.3706215E1,0E0,1.0128876E1,5.6731415E-1,0E0,0E0,1.1035614E0,1.5580947E0,0E0,0E0,2.135108E0,7.004547E0,1.0314503E0,8.716263E0,2.022192E0,0E0,0E0,0E0,0E0,0E0,0E0,1.0292387E-1,0E0,1.8785912E-1,2.9716164E-1,2.3369217E0,3.888321E0,1.1520973E1,9.574289E-2,1.4546709E0,2.770996E-1,9.416283E0,0E0,0E0,0E0,0E0,0E0,0E0,0E0,1.2389898E-2,0E0,0E0,5.4698944E-1,0E0,8.038052E-1,1.928936E0,2.0174677E-3,2.2430722E-1,4.6054173E-1,3.5771358E-1,0E0,0E0,4.163887E0,2.675251E0,0E0,0E0,0E0,0E0,0E0,0E0,0E0,0E0,0E0,0E0,0E0,0E0,0E0,0E0,0E0,0E0,0E0,0E0,0E0,0E0],"parents":[2147483647,0,0,1,1,2,2,3,3,4,4,5,5,6,6,7,7,8,8,9,9,10,10,11,11,12,12,13,13,15,15,16,16,19,19,20,20,23,23,24,24,25,25,26,26,27,27,34,34,36,36,37,37,38,38,39,39,40,40,41,41,42,42,43,43,44,44,52,52,55,55,57,57,58,58,59,59,60,60,61,61,62,62,65,65,66,66],"right_children":[2,4,6,8,10,12,14,16,18,20,22,24,26,28,-1,30,32,-1,-1,34,36,-1,-1,38,40,42,44,46,-1,-1,-1,-1,-1,-1,-1,-1,-1,-1,54,56,58,-1,62,-1,66,-1,-1,-1,-1,-1,-1,-1,-1,-1,-1,70,-1,72,74,-1,-1,80,82,-1,-1,84,86,-1,-1,-1,-1,-1,-1,-1,-1,-1,-1,-1,-1,-1,-1,-1,-1,-1,-1,-1,-1],"split_conditions":[-5.7746834E-1,-8.3399785E-1,1.6705815E0,-7.4531424E-1,-8.311022E-1,-2.2312956E-1,1.3840549E0,-1.522994E-1,9.8707235E-1,-9.8402846E-1,4.6935487E-1,-9.5924723E-1,3.671217E-1,8.5017574E-1,-2.0103684E-2,-1.2339325E0,-1.5845059E0,2.2721422E-1,7.185542E-2,9.52415E-1,-6.997798E-2,2.2520529E-1,2.5663223E-2,2.5294113E0,7.01149E-1,-2.6392338E-1,-8.220433E-1,3.6839625E-1,4.0416166E-1,7.367325E-2,4.3587434E-1,6.36705E-2,2.415468E-1,1.348443E-1,4.7808476E-2,5.423402E-2,-8.331871E-3,2.640948E-2,-1.078508E0,5.5905366E-1,6.075088E-1,1.131134E-2,6.07574E-1,1.6981706E-1,1.2140783E0,1.3044998E-1,1.6166687E-3,1.0930671E-2,5.645752E-2,-1.9615835E-2,1.276001E-2,-7.2419737E-3,3.4588166E-2,4.309598E-2,1.4681587E-1,-1.5082597E0,3.3965865E-1,1.1309006E0,1.0875788E0,-1.5235901E-3,2.0375824E-2,-3.9055884E-1,6.301013E-1,4.6882782E-2,1.7488715E-1,8.276484E-1,1.4627924E0,4.2216543E-2,1.5430399E-2,6.437678E-2,1.6936861E-1,-5.2196197E-2,1.778389E-2,6.84946E-2,1.5450597E-1,7.7125547E-4,-3.0566405E-3,-5.6163785E-3,3.6180113E-2,3.6567993E-2,8.591754E-2,-3.187561E-3,3.4415662E-2,1.04961835E-1,5.821435E-2,4.1610923E-2,1.6856666E-1],"split_indices":[9,2,3,9,9,10,2,10,6,9,2,2,10,6,0,9,6,0,0,6,6,0,0,1,6,2,6,2,0,0,0,0,0,0,6,0,2,2,6,6,2,1,6,6,6,0,0,2147483647,2147483647,2147483647,2147483647,2147483647,2147483647,0,0,6,0,6,6,2147483647,2147483647,6,6,2147483647,2147483647,6,9,2147483647,2147483647,0,0,0,0,0,0,2147483647,2147483647,2147483647,2147483647,0,0,0,0,0,0,0,0],"split_type":[0,0,0,0,0,0,0,0,0,0,0,0,0,0,0,0,0,0,0,0,0,0,0,0,0,0,0,0,0,0,0,0,0,0,0,0,0,0,0,0,0,0,0,0,0,0,0,0,0,0,0,0,0,0,0,0,0,0,0,0,0,0,0,0,0,0,0,0,0,0,0,0,0,0,0,0,0,0,0,0,0,0,0,0,0,0,0],"sum_hessian":[2.49E2,7.2E1,1.77E2,3.2E1,4E1,1.67E2,1E1,1.9E1,1.3E1,2.1E1,1.9E1,5.4E1,1.13E2,8E0,2E0,1E1,9E0,1.1E1,2E0,8E0,1.3E1,1.8E1,1E0,1.2E1,4.2E1,2.4E1,8.9E1,4E0,4E0,1E0,9E0,1E0,8E0,5E0,3E0,1E1,3E0,5E0,7E0,2.4E1,1.8E1,4E0,2E1,1.5E1,7.4E1,3E0,1E0,1E0,2E0,2E0,1E0,1E0,4E0,4E0,3E0,2.3E1,1E0,3E0,1.5E1,2E0,2E0,1.3E1,7E0,1E0,1.4E1,5.9E1,1.5E1,2E0,2E0,2E0,2.1E1,2E0,1E0,5E0,1E1,1E0,1E0,1E0,1E0,4E0,9E0,2E0,5E0,2.7E1,3.2E1,2E0,1.3E1],"tree_param":{"num_deleted":"16","num_feature":"13","num_nodes":"87","size_leaf_vector":"0"}},{"base_weights":[1.8127472E0,3.778702E0,1.6754575E0,1.3270764E0,4.2810187E0,2.6197622E0,1.4090886E0,4.587104E0,1.8337294E0,1.1803309E0,3.1618109E0,2.216783E0,1.0985878E0,1.4168189E0,-2.3789375E-1,1.518543E0,3.5183942E0,1.6051049E0,3.6313283E0,1.311754E0,5.7551146E-1,-1.7928791E-1,1.7233189E0,-1.0372925E-1,1.7651147E0,1.1715997E0,2.2819524E0,4.070804E0,1.5149384E0,-1.900959E-1,1.3468508E0,4.963123E-1,1.3868637E0,-2.9658842E-1,2.7656555E-2,3.238678E0,1.0267195E0,1.9562584E0,3.091259E-1,2.9622326E0,8.7416804E-1,3.6701965E-1,2.5967567E0,2.3997219E0,5.596158E0,-6.5555E-1,3.7040615E-1,1.2444818E0,1.978217E0,7.62005E-1,1.9051412E-1,-4.9088E-1,1.2777793E0,4.7255027E-1,1.0699103E0,6.0840034E-1,-5.7870865E-2,3.7743716E0,1.6833546E0,3.721809E0,4.777043E-1,1.4834733E0,7.6479113E-1,7.0242244E-1,2.18368E0,2.4565427E-1,9.177449E-1,-7.014804E-1,2.790405E-1],"categories":[],"categories_nodes":[],"categories_segments":[],"categories_sizes":[],"default_left":[true,true,true,false,true,true,true,false,false,true,true,true,true,true,false,true,false,true,true,true,true,true,true,false,true,true,true,true,false,true,true,true,false,true,true,false,true,false,false,false,true,true,true,true,false,false,false,true,true,true,true,false,false,false,false,false,false,false,false,false,false,false,false,false,false,false,false,false,false],"id":33,"left_children":[1,3,5,-1,7,9,11,-1,-1,13,15,17,19,21,-1,23,-1,25,27,29,31,-1,35,-1,37,39,41,43,-1,45,47,49,-1,-1,-1,-1,51,-1,-1,-1,53,55,57,59,-1,-1,-1,61,63,65,67,-1,-1,-1,-1,-1,-1,-1,-1,-1,-1,-1,-1,-1,-1,-1,-1,-1,-1],"loss_changes":[5.8986084E1,1.2791153E1,5.365808E1,0E0,5.774231E-1,3.4499878E1,4.270688E1,0E0,0E0,5.3679466E0,1.51658325E1,3.6568405E1,1.3963364E1,6.668659E0,0E0,3.3831444E0,0E0,7.889473E0,6.8544006E0,5.1580505E0,1.88202E0,8.102669E-2,8.286369E0,0E0,1.3433933E0,1.0192696E1,6.8837204E0,1.4609695E1,0E0,1.0254836E0,3.4196777E0,2.9422636E0,0E0,0E0,0E0,0E0,4.0563116E0,0E0,0E0,0E0,1.2239113E0,3.4288976E-1,5.478386E0,1.6009598E1,0E0,0E0,0E0,8.151451E0,1.3495483E0,1.3828802E0,1.6960773E0,0E0,0E0,0E0,0E0,0E0,0E0,0E0,0E0,0E0,0E0,0E0,0E0,0E0,0E0,0E0,0E0,0E0,0E0],"parents":[2147483647,0,0,1,1,2,2,4,4,5,5,6,6,9,9,10,10,11,11,12,12,13,13,15,15,17,17,18,18,19,19,20,20,21,21,22,22,24,24,25,25,26,26,27,27,29,29,30,30,31,31,36,36,40,40,41,41,42,42,43,43,47,47,48,48,49,49,50,50],"right_children":[2,4,6,-1,8,10,12,-1,-1,14,16,18,20,22,-1,24,-1,26,28,30,32,-1,36,-1,38,40,42,44,-1,46,48,50,-1,-1,-1,-1,52,-1,-1,-1,54,56,58,60,-1,-1,-1,62,64,66,68,-1,-1,-1,-1,-1,-1,-1,-1,-1,-1,-1,-1,-1,-1,-1,-1,-1,-1],"split_conditions":[-9.9148834E-1,-1.2302026E0,-1.0022612E0,1.0616611E-1,1.5463126E-1,-3.0390027E-1,1.784311E-1,3.669683E-1,1.4669834E-1,1.6705815E0,-5.900394E-1,1.359173E0,8.393227E-1,-4.7857122E0,-1.9031499E-2,-1.1786234E0,2.8147152E-1,-7.596645E-2,-1.1652643E-1,1.9891056E-1,1.6705815E0,-1.4343033E-2,-3.03126E0,-8.298339E-3,4.1527483E-1,-5.252496E-1,-6.419488E-1,-4.152075E-1,1.2119506E-1,-3.1642705E-2,-6.525141E-2,1.134264E0,1.1094909E-1,-2.3727072E-2,2.2125244E-3,2.5909424E-1,-2.2741847E0,1.5650067E-1,2.4730071E-2,2.369786E-1,-2.7983022E-1,-7.1254396E-1,9.239074E-2,-8.2266915E-1,4.4769263E-1,-5.2444E-2,2.9632492E-2,-4.2827195E-1,-6.419488E-1,3.159361E-1,3.6088455E-1,-3.92704E-2,1.02222346E-1,3.7804022E-2,8.559282E-2,4.8672028E-2,-4.6296692E-3,3.019497E-1,1.3466837E-1,2.977447E-1,3.821634E-2,1.1867786E-1,6.118329E-2,5.6193795E-2,1.746944E-1,1.965234E-2,7.3419586E-2,-5.611843E-2,2.2323238E-2],"split_indices":[9,9,10,0,10,11,11,0,0,3,8,8,10,11,0,2,0,11,11,11,3,11,11,0,11,9,2,11,0,2,8,8,0,2147483647,2147483647,0,11,0,0,0,11,2,11,11,0,0,0,9,2,11,11,0,0,0,0,0,0,0,0,0,0,0,0,0,0,0,0,0,0],"split_type":[0,0,0,0,0,0,0,0,0,0,0,0,0,0,0,0,0,0,0,0,0,0,0,0,0,0,0,0,0,0,0,0,0,0,0,0,0,0,0,0,0,0,0,0,0,0,0,0,0,0,0,0,0,0,0,0,0,0,0,0,0,0,0,0,0,0,0,0,0],"sum_hessian":[2.41E2,1.4E1,2.27E2,3E0,1.1E1,4.8E1,1.79E2,9E0,2E0,1.4E1,3.4E1,4.8E1,1.31E2,1.2E1,2E0,7E0,2.7E1,3.5E1,1.3E1,9.2E1,3.9E1,2E0,1E1,1E0,6E0,2.3E1,1.2E1,1E1,3E0,2E0,9E1,3.7E1,2E0,1E0,1E0,2E0,8E0,5E0,1E0,2E0,2.1E1,2E0,1E1,6E0,4E0,1E0,1E0,8E1,1E1,1.9E1,1.8E1,1E0,7E0,8E0,1.3E1,1E0,1E0,3E0,7E0,3E0,3E0,5.2E1,2.8E1,2E0,8E0,5E0,1.4E1,1E0,1.7E1],"tree_param":{"num_deleted":"2","num_feature":"13","num_nodes":"69","size_leaf_vector":"0"}},{"base_weights":[1.5606029E0,1.3446106E0,4.858724E0,1.6254041E0,6.145981E-1,5.2362647E0,1.7289873E0,1.5110241E0,5.679877E0,1.8704412E0,4.2421702E-1,3.3354893E0,1.3358222E0,1.151851E0,2.6841412E0,1.1645622E0,2.9468682E-1,1.2415352E0,3.6033413E0,1.0230422E0,1.6899706E0,1.2564954E0,2.605152E-1,1.7635812E-1,9.7946507E-1,3.7933118E0,8.518181E-1,2.6513562E0,9.238804E-1,2.181628E0,1.1921704E0,3.175453E-1,-3.922985E-1,1.1879225E0,5.261414E-1,2.1968567E0,4.4914727E0,-2.0664664E-1,1.0788265E0,1.2316023E0,2.4998293E0,1.9646709E-1,1.4799169E0,7.1563554E-1,1.80739E-2,2.283891E-1,-6.022648E-1],"categories":[],"categories_nodes":[],"categories_segments":[],"categories_sizes":[],"default_left":[true,true,true,true,true,false,false,true,false,true,true,true,true,false,false,true,true,false,true,true,true,false,false,true,true,true,false,false,true,true,true,true,true,true,true,false,false,false,false,false,false,false,false,false,false,false,false],"id":34,"left_children":[1,3,5,7,9,-1,-1,11,-1,13,15,17,19,-1,-1,21,23,-1,25,27,29,-1,-1,31,-1,35,-1,-1,37,39,41,43,45,-1,-1,-1,-1,-1,-1,-1,-1,-1,-1,-1,-1,-1,-1],"loss_changes":[1.6016125E2,4.4302216E1,7.4890137E0,6.515396E1,1.4269123E1,0E0,0E0,4.540973E1,0E0,1.5860043E0,5.027055E0,2.817627E0,